solver_type L2R_L2LOSS_SVC_DUAL
nr_class 1
label 1
nr_feature 202552
bias -1
w
0.9965365880919561 
0.001700890826418425 
5.210135203172003e-05 
0 
0 
0 
0 
0 
1.965116437629977e-19 
0 
0 
3.427503243635589e-05 
0.0003849121199065193 
-1.283254915090265e-19 
9.187678667684403e-06 
0 
0.0001638108596540195 
0.0004717380753175829 
2.1470452332078e-05 
2.1470452332078e-05 
0 
8.799167134234279e-05 
0 
0 
0 
0 
4.438659357994264e-05 
0 
0 
0 
0 
0 
2.294205470396323e-05 
0 
0 
1.147102735198161e-05 
1.147102735198161e-05 
1.147102735198161e-05 
0 
3.532443618089385e-06 
3.0006941940142e-05 
3.0006941940142e-05 
0 
1.853591458816038e-05 
1.5003470970071e-05 
0.003421898124464794 
3.516395806912315e-05 
0 
0 
0 
0 
0 
0.0001215570958269142 
0.0001518489281172254 
0.003015850335813684 
0 
0 
0 
0 
0 
0 
0 
0 
0 
1.000695885694719e-06 
2.811583865958477e-05 
0 
0 
0.9825719248942475 
0.01687692814037994 
0.0002612418976971934 
6.85148454934747e-05 
6.85148454934747e-05 
6.85148454934747e-05 
6.85148454934747e-05 
0.002676876479952088 
0.002676876479952088 
0.002676876479952088 
0.002676876479952088 
0.002676876479952088 
0.002676876479952088 
0 
0 
0 
0 
0 
0 
0 
0 
0 
0.002319550942233154 
0.002361079327104457 
4.152838487130318e-05 
4.152838487130318e-05 
0 
0 
4.152838487130303e-05 
0.0001245851546139094 
0.004324160737258286 
2.347651728346383e-05 
0 
0 
0.002828106284299059 
0.0001092083104985044 
0 
0 
0.0004421977958694961 
0.002310732530118967 
2.347651728346383e-05 
0.9653945534911347 
0 
0 
0 
0.0005859298262102749 
0 
0 
0 
0 
0 
0.0004597750544333337 
0.006558986310998163 
0 
0.0001261547717769413 
0.008721225264372695 
0.0001261547717769413 
0.001045704880643609 
0.0001261547717769413 
6.041795836948735e-05 
0 
0 
0 
0 
0 
0 
0 
0 
0 
0 
4.918387683377895e-05 
0 
0 
0 
0 
0 
0 
3.999646639749253e-05 
0 
0 
0 
0 
0 
0 
0 
0 
0 
5.816579143683228e-06 
0 
0 
0 
0 
0.002680219303322257 
0.002680219303322257 
0.002680219303322257 
0.002680219303322257 
0.002680219303322257 
0.002680219303322257 
0.0007897560448231871 
0.000726415573413112 
0 
0.0007897560448231871 
0.000726415573413112 
0 
2.349797100314289e-05 
0 
0 
0 
0 
0 
0 
0 
0 
3.934685102046571e-05 
7.676132855241305e-05 
0.0001611146539914902 
0 
0 
2.349797100314289e-05 
0 
0 
0 
0 
0 
0 
0 
0 
0.003417067380346751 
5.047422147234213e-05 
0 
0 
0 
0 
0 
0 
0 
0 
0 
0 
0 
0 
0.0001817365328913686 
0 
0.0001679333790283917 
0 
0 
0 
0 
0 
0 
0 
0 
0 
0 
0 
0 
0 
0 
0 
0 
0 
0 
0 
0 
0 
0 
0 
0 
0 
0 
0 
0 
0 
0 
0 
0 
0 
0.0005222284510962201 
0 
0 
0 
0 
0 
0 
0 
0 
0 
0 
0 
0 
0.000405021648893496 
0 
4.92644150257421e-05 
0 
0 
0.0001641929166902746 
0 
4.92644150257421e-05 
0 
0 
0 
0.002376927120923742 
0 
0 
0 
0 
0 
0 
0 
0.000721330645346197 
0 
0 
0.0009733798164070707 
0 
0 
0 
0 
0 
0 
0 
0 
0 
0 
0.0001897607192229879 
0.002335638284817872 
0 
0 
0 
0 
0 
0 
0 
0 
0 
0 
4.024538544138658e-05 
0 
0 
0 
0 
0 
0 
0 
0 
0 
0 
0.001344625086824762 
0 
0 
0 
0 
0.0007157919690163251 
0 
0 
0.0009175071855156081 
1.85895090370241e-05 
0 
1.85895090370241e-05 
0 
0 
0 
0 
0 
0 
0 
1.573570160474317e-05 
0 
0 
0.0002066719833958619 
0 
0 
0 
0 
0 
0 
0 
0.000123160857579202 
0.002277387673762164 
0 
0 
0 
0 
0 
0 
0 
0 
0 
0 
0 
0.002279001819714977 
0 
0 
0 
0 
0 
0 
0 
0 
0 
0 
0 
0 
0.001633752810977257 
0 
0 
0 
0 
0 
0 
0 
0 
0 
0 
0 
0.002267962787629155 
0 
0 
0 
0 
0 
0 
0 
0 
0 
0 
0 
5.225452743843704e-06 
0 
0 
0 
0 
0 
0 
0 
0 
0 
0 
0.9700853590780226 
0 
0 
0 
0 
0 
0 
0 
-1.219727444046192e-19 
0.01058263780079532 
0 
0 
0 
2.490764052473668e-06 
2.490764052473668e-06 
2.490764052473668e-06 
2.490764052473668e-06 
2.490764052473668e-06 
2.490764052473668e-06 
2.13718051337493e-05 
0 
0 
0 
0 
0 
0 
0.001651571301192336 
0 
0 
0 
0 
0 
9.034204711093864e-06 
9.034204711093864e-06 
9.034204711093864e-06 
9.034204711093864e-06 
9.034204711093864e-06 
5.868509043226248e-06 
5.868509043226248e-06 
5.868509043226248e-06 
5.868509043226248e-06 
5.868509043226248e-06 
5.868509043226248e-06 
0 
0 
0 
0 
0.0005213130407595592 
0.0005213130407595592 
0.0005213130407595592 
0.0005213130407595592 
0.0005213130407595592 
0.0005213130407595592 
1.85895090370241e-05 
1.85895090370241e-05 
0 
0 
0 
0 
0 
0 
0 
0 
0 
0 
0 
0 
0 
0.001580219432424527 
0 
0 
0 
0 
0 
0 
0 
0 
0 
0 
0 
0 
0 
0 
0 
0 
0 
0 
0.001903324468024756 
0 
0 
0 
3.646036162883612e-05 
0 
0 
0 
0 
0 
0 
0 
0 
0 
2.414129576887383e-05 
0 
0 
0 
0 
0 
0 
0 
0 
0 
0 
0 
0 
0 
0 
0 
0 
0 
0.001667782546044539 
0 
0 
0 
2.278044299400955e-05 
6.198314115654798e-06 
0 
0 
0 
1.419201235086956e-05 
0 
0 
0 
0 
0 
0 
0.001020777328131869 
0 
0 
0 
0 
0 
0 
0 
0 
0 
0 
0 
0 
0 
0 
0 
0 
0 
0 
0 
0 
0 
0 
0 
0 
0 
0 
0 
0 
0 
0 
0 
0 
0 
0 
0 
2.349797100314289e-05 
0 
0 
6.496153770268105e-07 
0 
2.50873537686715e-05 
0 
0 
0 
0 
0 
0 
0.001232056595530535 
0 
0 
0 
3.388131789017201e-21 
0 
0 
0 
1.099157222839893e-05 
0 
0 
0.0006701730798838641 
0 
0 
0 
0 
0 
0 
0 
0 
0.00105075404159209 
0 
0 
0.001214402802262496 
0 
0 
3.714195085288803e-05 
0.0002655924778113896 
3.714195085288803e-05 
0 
0 
0 
0 
0 
0 
0.002304896385963108 
0 
0 
0 
2.867157219872895e-05 
0 
0 
0 
0 
0 
0 
0.0004257193997107657 
0 
0 
0 
1.790378210415729e-05 
0 
0 
0 
0 
0 
0 
0 
0 
0 
0 
0 
0 
0 
0 
0 
0 
0.0009194585163600029 
0 
0 
0 
0 
0.0009268378561658034 
0 
0 
0 
0 
0 
0 
0 
0.000602611621711543 
0.000602611621711543 
0.000602611621711543 
0.000602611621711543 
0.000602611621711543 
0.000602611621711543 
0.000602611621711543 
0.000602611621711543 
0.01129752823840289 
0.000602611621711543 
0 
0 
0 
0 
0 
0 
0 
0.00452071677410848 
0 
0 
0 
5.225452743843704e-06 
0 
0 
7.159469368676325e-06 
0 
0 
0 
0 
0 
0.0001372867800076597 
0.002549739495809882 
0 
0 
0 
0 
0.0001170420092362179 
0 
0 
0 
0 
0 
0 
0 
0 
0 
0.002554625515060046 
0 
0 
0 
0 
0 
0 
0 
0 
0 
8.131516293641283e-20 
0.005285937668831189 
8.131516293641283e-20 
8.131516293641283e-20 
0 
0.001010439622628854 
0.001010439622628854 
0.001010439622628854 
0 
0 
0 
0.0003492644327143272 
0.005124287542552102 
0 
0.001010439622628854 
0.001010439622628854 
0.9440510266110586 
0.0444098979608763 
0.0009589326027335217 
0.0009589326027335217 
0.0009589326027335217 
0.0009589326027335217 
0.0009589326027335217 
0.0009589326027335217 
0.0009589326027335217 
0.0009589326027335217 
0.0009589326027335217 
0.0009589326027335217 
0.0009589326027335217 
0.0009589326027335217 
0.0009589326027335217 
0 
0 
0 
0 
0 
0 
0 
0 
0 
0.0002145398341982335 
0.0003065963549153674 
0 
0 
0 
0.0003242874613211831 
0.0003242874613211831 
0.0003242874613211831 
0.001303815464272845 
0.0003305084048756991 
0.0003242874613211831 
0.0003545608601609856 
0.006723382392963176 
0.001434183599989541 
0.001434183599989541 
0.006723382392963176 
0.001434183599989541 
0.001434183599989541 
0.001434183599989541 
0.001434183599989541 
0.001434183599989541 
0.001434183599989541 
0.001434183599989541 
0.001434183599989541 
0.004613066386957242 
0.001434183599989541 
0 
0 
0 
0.0001098274775090467 
0.0001098274775090467 
0 
0 
0 
0 
0 
0 
5.49875943409618e-06 
5.49875943409618e-06 
5.49875943409618e-06 
5.49875943409618e-06 
5.49875943409618e-06 
0 
0 
0 
0 
0 
0 
0 
0 
0.002702483743166066 
0 
0 
0 
0 
0 
0 
0 
0 
0 
0 
0 
0.00481252954982322 
0 
0 
0 
0.001670318312285093 
0 
0.955374110178045 
0.04011456499107246 
0.0006568733726919231 
0.0006568733726919231 
0.0006568733726919231 
0.0006568733726919231 
0.0006568733726919231 
0 
0 
0 
0 
0 
0 
0 
0 
0 
0 
0 
3.706376161569891e-05 
0 
3.70637616156989e-05 
0 
0 
0 
0 
0 
0.0002613405478900729 
0 
8.274782462670936e-06 
0 
0 
0 
0 
0 
0 
0 
0.0007367478469576978 
0.0007367478469576978 
0.0007367478469576978 
0.0007367478469576978 
0.0007367478469576978 
0.0007367478469576978 
0.0007367478469576978 
0.002449628077844684 
0.008321444807412108 
0.0007367478469576978 
0 
0 
0 
0 
0 
0 
0 
0 
0 
0 
0 
0 
0 
0 
0 
0 
0 
0 
0 
0 
0 
0 
0 
0 
9.130549976716195e-05 
0.006176417173494203 
0 
0 
0 
0 
0 
0 
9.130549976716195e-05 
0 
7.509728036556029e-05 
0.003607279373172719 
0 
1.620821940160168e-05 
0.0003300835613534533 
0 
0 
0 
0 
0.000414135957339625 
0 
0 
0.0005924808552979442 
0 
0 
0 
0 
0 
0 
0 
0 
0 
0 
0 
0.001431140613572406 
0.002227989578460247 
0 
0 
0 
0 
0 
0.002582484454977277 
0 
0.0005128163837000456 
0.003095300838677323 
0.0001568551536787024 
0.001011810734435176 
0.0001568551536787024 
0.0165145742063212 
0.0001563080239802464 
0.0001563080239802464 
0.0001563080239802464 
0.0001563080239802464 
0.0001563080239802464 
9.004358746922552e-05 
9.004358746922552e-05 
9.004358746922552e-05 
9.004358746922552e-05 
9.004358746922552e-05 
0.0006130902260194133 
0.0006130902260194133 
0.0006130902260194133 
0.0006130902260194133 
0.0006130902260194133 
0.0006130902260194133 
0.0006130902260194133 
0.0006130902260194133 
0.01170712114761282 
0.0006130902260194133 
0.0002260111720620304 
6.923947039159057e-05 
6.923947039159057e-05 
6.923947039159057e-05 
6.923947039159057e-05 
8.752089407824044e-05 
8.752089407824044e-05 
8.752089407824044e-05 
8.752089407824044e-05 
8.752089407824044e-05 
0.0001291318029206426 
0.0001291318029206426 
0.0001291318029206426 
0.0001291318029206426 
0.0001291318029206426 
0.0005668718469494211 
0 
0 
0 
0 
0 
0 
0.002489458847027962 
0 
0 
0 
0 
3.930407381337788e-05 
0 
3.930407381337788e-05 
0 
0 
0 
0 
0.0001224520007998549 
0.0001224520007998549 
0.0001224520007998549 
0.0001224520007998549 
0.0001224520007998549 
0.0001224520007998549 
0.01088784465269686 
5.047761301608864e-05 
1.009884839668906e-05 
0.01705858724848585 
0.002084044314926282 
1.009884839668906e-05 
0 
0 
0 
0 
0 
0 
0 
0 
0.01053690300751781 
0 
0 
0 
0 
0 
0 
0 
0 
0 
0 
0 
0 
0 
0 
0 
0 
0.8735931018359592 
0 
0 
0 
0 
0 
0 
2.710505431213761e-20 
2.710505431213761e-20 
0 
0 
2.710505431213761e-20 
2.710505431213761e-20 
0 
0 
2.710505431213761e-20 
2.710505431213761e-20 
0 
0 
2.710505431213761e-20 
2.710505431213761e-20 
0 
0 
2.710505431213761e-20 
2.710505431213761e-20 
0 
0 
2.710505431213761e-20 
2.710505431213761e-20 
0 
0 
2.710505431213761e-20 
0.004024593419733645 
0.01226765113153253 
2.710505431213761e-20 
2.710505431213761e-20 
2.710505431213761e-20 
2.710505431213761e-20 
4.607859233063394e-19 
2.710505431213761e-20 
2.710505431213761e-20 
0.01121770689166419 
2.710505431213761e-20 
0.003349200144284603 
0.02296144644102938 
2.710505431213761e-20 
0.003687957319775963 
0.003687957319775963 
0 
0.003349200144284603 
0.08505385896799353 
0 
0 
0 
0 
0 
0 
0 
0 
0 
0 
0 
0 
0.0009159512241936315 
0.02630643402972777 
0 
0 
0 
0 
0 
0 
0 
0.0003053170747312105 
0.02252647280736528 
0 
0.07109354418904065 
0 
0 
0 
0 
0 
0 
0 
0 
0 
0 
0.02800913137081283 
0 
0 
0.02385616881266851 
0 
0 
0 
0 
0 
0 
0 
0 
0 
1.699081419921556e-05 
1.699081419921556e-05 
1.699081419921556e-05 
1.699081419921556e-05 
1.699081419921556e-05 
1.699081419921556e-05 
1.699081419921556e-05 
1.699081419921556e-05 
0.02940645943193238 
1.699081419921556e-05 
1.699081419921556e-05 
0.01093958276603647 
1.699081419921556e-05 
0 
0 
0 
0 
0 
0 
0 
0 
0.0002066719833958619 
0 
0 
0 
0.04730550892584716 
0.001783892775932373 
0.001720933156947388 
0 
0 
0 
0 
0 
0 
0 
0 
0 
0 
0 
0.01196372392582028 
0 
0 
0 
0 
0.004159656589487965 
0 
0 
0.006723221547909033 
0 
0 
0 
0 
0 
0 
0 
0.0007435295281666975 
0.001764144809771487 
0 
0 
0 
0 
0 
0 
0 
0 
0 
0 
0 
0 
0 
0 
0.00200122608865842 
0 
0 
0 
0 
0 
0 
0.001943279313837296 
0 
0 
6.940719746584279e-06 
6.940719746584279e-06 
6.940719746584279e-06 
6.940719746584279e-06 
6.940719746584279e-06 
0.02734507284859919 
0 
0 
0 
0 
0 
0 
0 
0.003716791615810817 
0.003716791615810817 
0 
0.002608039592902428 
0.002608039592902428 
0.008338823317619527 
0 
0 
0 
0 
0 
0 
0 
0 
0.0007531664883194676 
0 
0 
0.0008032981487391787 
0 
0 
0 
0 
0 
0 
0.0004054735624301831 
0.0001583451045897099 
0 
0 
0 
0 
0.002484110887238439 
0 
0 
0 
7.159469368676325e-06 
0 
0 
0 
0 
0 
0 
0 
0 
0 
0 
0 
0 
0.001883661060769579 
0 
0 
0 
0 
0 
0 
0 
0 
0 
0 
0 
0 
0 
0 
7.543420842114518e-05 
0 
0 
0 
0 
0 
0 
0.007768120574347485 
0 
0.008664880859392094 
0.008664880859392094 
0.008664880859392094 
0.008664880859392094 
0.008664880859392094 
0.008664880859392094 
0.0005214577869761724 
0.0005214577869761724 
0.0005214577869761724 
0.0005214577869761724 
0.0005214577869761724 
0.0005214577869761724 
3.080122279844949e-05 
0 
0 
0 
0 
0 
0 
0 
0 
0 
0 
0 
0 
0 
0 
0 
0 
0 
0 
0.00238006765328172 
0 
0 
0 
0 
0 
0 
0 
0 
0.002019014657029499 
0 
0 
0 
0 
0 
0 
0 
0.0003532829161448863 
0 
0 
0 
0 
0 
0 
0 
0 
0 
0 
0 
0 
0 
0 
0 
0 
0 
0 
0 
0 
0 
0 
0 
0 
0 
0 
0 
0 
0 
0 
0 
0 
0 
0 
0 
0 
0 
0 
0 
0 
0 
0 
0 
0 
0 
0 
0 
0 
0 
0 
0 
0 
0 
0 
0 
0 
0 
0 
0 
0 
0 
0 
0 
0 
0.0007114376001819747 
0 
0 
0 
0 
0 
0 
0 
0 
0 
0 
0 
0 
0 
0 
0 
0 
0 
0 
0 
0 
0 
0 
0 
0 
0.00803208324171526 
0 
0 
0 
0 
0 
0 
0 
0.001591006434476585 
0 
0.000254425455626502 
1.630204008591696e-05 
0 
0.002845394699437731 
0.0002818496503204562 
0 
0 
0.000219809612128252 
0.0001766782880889869 
0.001357327560121009 
0 
0 
0.001357327560121009 
0 
0 
0 
0 
0 
0 
0 
0 
0 
0 
0.0001107573821067464 
3.059618726374936e-05 
3.059618726374936e-05 
0 
4.899459542654701e-05 
6.74261512440775e-05 
6.74261512440775e-05 
0 
4.389197025035446e-05 
4.389197025035449e-05 
0 
9.711803903722929e-05 
0 
0.0001012277712056211 
9.711803903722929e-05 
0.001162725561284532 
0.0002190010805279177 
0.0001478072166950686 
0.001515927164350627 
0.0002190010805279177 
0.0001478072166950686 
0.0001399276748417977 
0 
0 
0.0003134441405059923 
7.119513445961164e-05 
0 
0.0001235889021440665 
0.03942640546114883 
0.0008002643677550774 
0.0008002643677550774 
0.0008002643677550774 
0.0008002643677550774 
0.0008002643677550774 
0.0008002643677550774 
3.760343563954572e-05 
3.760343563954572e-05 
3.760343563954572e-05 
3.760343563954572e-05 
3.760343563954572e-05 
3.760343563954572e-05 
3.760343563954572e-05 
3.760343563954572e-05 
3.760343563954572e-05 
3.760343563954572e-05 
3.760343563954572e-05 
3.760343563954572e-05 
3.760343563954572e-05 
3.760343563954572e-05 
0.006065718516723083 
3.760343563954572e-05 
3.760343563954572e-05 
3.760343563954572e-05 
3.760343563954572e-05 
0.003269652605761383 
3.760343563954572e-05 
7.520687127909145e-05 
0.0004620939638953693 
3.760343563954572e-05 
3.760343563954572e-05 
0 
0 
0 
0 
0 
0 
0 
0.008178033840734511 
0 
0 
0 
0 
0 
0 
0 
0 
0 
0 
0 
0.002549693123902717 
0 
0 
0.001423699460025876 
0 
0 
0.001636612641585967 
8.184165858320154e-05 
0 
0 
2.710505431213761e-20 
0 
9.153723490570159e-05 
0 
0 
0.006918705366789771 
0.006918705366789771 
0.006918705366789771 
0.006918705366789771 
0.006918705366789771 
0.006918705366789771 
0.003095760811666918 
0.003095760811666918 
0.003095760811666918 
0.003095760811666918 
0.003095760811666918 
0.003095760811666918 
0.003095760811666918 
0.003095760811666918 
0.01522802699268377 
0.003095760811666918 
0.001287468276130698 
0.001287468276130698 
0.001287468276130698 
0.001287468276130698 
0.001287468276130698 
0.001287468276130698 
0.001287468276130698 
0.001287468276130698 
0.01144755582618163 
0.001287468276130698 
0.001287468276130698 
0.001287468276130698 
0.001287468276130698 
0.005332873777197929 
0.001287468276130698 
0.01681873117192076 
0.002712007515924495 
0 
0 
0.001066396617741152 
0.007035767631256864 
0 
0 
0 
0 
0 
0.0001225448854848113 
0.004003320343803779 
0 
0.0006987619612867183 
0.0006987619612867183 
0 
0 
0 
0 
0 
0 
0 
0.002101184284945171 
0 
0 
0 
0 
0.0007003947616483904 
0 
0.0007003947616483904 
0.0007003947616483904 
0 
0 
0 
0 
0 
0 
0 
0 
0 
0 
0 
0 
0.01437141191974938 
0 
0 
0.01685296580821886 
0.001937416658571062 
0 
0 
0 
0.01065584584152231 
0 
0 
0.01007864239369687 
0 
0.0008821986582881869 
0.0008821986582881869 
0 
0.0008821986582881865 
0.0008821986582881865 
0 
0 
0 
0 
0 
0 
0 
0 
0 
0 
0 
0 
0 
0 
0 
0.003112087088712673 
0 
0 
0 
0 
0 
0.004536251390299145 
0 
0 
0.006431343866708893 
0 
0 
0 
0 
0.0003243298972998534 
0.0003243298972998534 
0.0003243298972998534 
0.0003243298972998534 
0.0003243298972998534 
0.0003243298972998534 
0.0003243298972998534 
0.0003243298972998534 
0.0003243298972998534 
0.0003243298972998534 
0.0003243298972998534 
0.0003243298972998534 
0.0003243298972998534 
0.003111807295250288 
0.0003243298972998534 
0.001297319589199413 
0.002999371012319371 
0.0003243298972998534 
0.0003243298972998534 
0.0003243298972998534 
0.0003243298972998534 
0.0003243298972998534 
0.0003243298972998534 
0.01316786577585039 
0 
0 
0 
0 
0 
0 
0 
0 
0 
0 
0 
0 
0 
0.0006113914518097456 
0.00256817168627129 
0 
0.0003355198581937768 
0 
0.00157405708268824 
0.002932533759548423 
0 
6.278913546553355e-05 
6.278913546553355e-05 
0 
0 
0.000960163957786983 
0.008607662658446803 
0.004313052801740086 
0.001512073997637008 
0.008607662658446803 
0.004313052801740086 
0.001512073997637008 
0 
0 
0.008227731255552369 
0 
0 
0.004294609856706716 
0.002153835700555135 
0.004294609856706716 
0.002153835700555135 
0.0006260676846927999 
0.0006260676846927999 
0.0006260676846927999 
0.0006260676846927999 
0.0006260676846927999 
0.0006260676846927999 
0.0006260676846927999 
0.0006260676846927999 
0.007047001427623231 
0.0006260676846927999 
0.0006260676846927999 
0.0006260676846927999 
0.0006260676846927999 
0.0006260676846927999 
0.002140774156151581 
0.002140774156151581 
0.008463023119412742 
0 
0 
0.008463023119412742 
0 
0 
0 
0 
0 
0.000623566451884179 
0.00528754704172496 
0 
-2.602085213965211e-18 
0.006388878172656813 
0 
0 
0.002581714970119004 
0 
0 
0 
0 
0 
0.00199480421508627 
0.009180207452444022 
0 
0.002800978804103079 
0.002800978804103079 
0.0006908490297991103 
0.0006908490297991103 
0.0006908490297991103 
0.0006908490297991103 
0.0006908490297991103 
0.0006908490297991103 
0.0006908490297991103 
0.0006908490297991103 
0.006899588031617167 
0.0006908490297991103 
0.0006908490297991103 
0.0006908490297991103 
0.0006908490297991103 
0.0006908490297991103 
0.0004594866710188999 
0 
0 
0 
0 
0 
0 
0.009030236144235603 
0 
0.00220865394066609 
0.00220865394066609 
0.00220865394066609 
0.00220865394066609 
0.00220865394066609 
0.00220865394066609 
0.00220865394066609 
0.00220865394066609 
0.00220865394066609 
0 
0 
0 
0 
0 
0 
0 
0.001898017722601776 
0.001898017722601776 
0.001898017722601776 
0.001898017722601776 
0.001898017722601776 
0.001898017722601776 
0.001898017722601776 
0.003740421972118547 
0.001898017722601776 
3.206128425704048e-05 
3.206128425704048e-05 
3.206128425704048e-05 
3.206128425704048e-05 
3.206128425704048e-05 
3.206128425704048e-05 
3.206128425704048e-05 
3.206128425704048e-05 
0.009871154198484042 
3.206128425704048e-05 
3.206128425704048e-05 
3.206128425704048e-05 
3.206128425704048e-05 
3.206128425704048e-05 
0 
0 
0 
0 
0 
0 
0 
0 
0 
0 
0 
0 
0 
0 
0 
0 
0 
0 
0 
0 
0 
0 
0 
0 
0 
0 
0 
0 
0 
0 
0 
0 
0 
0.0001633551809413112 
0.0001633551809413112 
0.0001633551809413112 
0.001830139847701604 
0.0001633551809413112 
0.0001633551809413112 
0.0001633551809413112 
0.0001633551809413112 
0.0001633551809413112 
0.0001633551809413112 
0.001054196621329636 
0.0001633551809413112 
0.003037328751349536 
0.009327338124768788 
0.0001633551809413112 
0.0001633551809413112 
0.002096684119560525 
0.002096684119560525 
0.002096684119560525 
0.002096684119560525 
0.002096684119560525 
0.002096684119560525 
0.002096684119560525 
0.002096684119560525 
0.01008316231796794 
0.002096684119560525 
0.002832498808105539 
0.00199480421508627 
0.00199480421508627 
0.002832498808105539 
0.00199480421508627 
0.00199480421508627 
0.00199480421508627 
0.00199480421508627 
0.002023516569509468 
0.002023516569509468 
0.002023516569509468 
0.002023516569509468 
0.002023516569509468 
0.002023516569509468 
0.002023516569509468 
0.002023516569509468 
0.01108915428886253 
0.002023516569509468 
0 
0 
0 
0 
0 
0 
0 
0 
0 
0 
0 
0 
0 
0 
0 
0 
0 
0 
0.001409664114066713 
0 
0 
0 
0 
0 
0.004001740741823824 
0.004001740741823824 
0.004001740741823824 
0.004001740741823824 
0.004001740741823824 
0.004001740741823824 
0.004001740741823824 
0.0003872457951914995 
0.0003872457951914995 
0.0003872457951914995 
0.0001936228975957497 
0.0001936228975957497 
0.0001936228975957497 
0.0001936228975957497 
0.0001936228975957497 
0.0001936228975957497 
0.0001936228975957497 
0.0001936228975957497 
0.0001936228975957497 
0.0001936228975957497 
0.0001936228975957497 
0.0001936228975957497 
0.0001936228975957497 
0.0001936228975957497 
0.0001936228975957497 
0.0001936228975957497 
0.0003872457951914995 
0.003455742103843782 
0.0001936228975957497 
0.0001936228975957497 
0.0001936228975957497 
0.0001936228975957497 
0.0001936228975957497 
0.002970433730240457 
0.0001936228975957497 
0.0001936228975957497 
0.0001936228975957497 
0.0005808686927872492 
0.001073976931242684 
0.0001936228975957497 
0.0001936228975957497 
0.0001936228975957497 
0 
0 
0 
0 
0 
0 
0 
0 
0 
0 
0.01017850558085373 
0 
0 
0 
0 
0 
0 
0.00195886490166109 
0.00195886490166109 
0.00195886490166109 
0.00195886490166109 
0.00195886490166109 
0.00195886490166109 
0.00195886490166109 
0.00195886490166109 
0.0113612848607972 
0.00195886490166109 
0 
0 
0.001842404249516771 
0.001842404249516771 
0.001842404249516771 
0.002348550590896009 
0.001842404249516771 
0.001842404249516771 
0.001842404249516771 
0.001842404249516771 
0.0008821986582881869 
0.0008821986582881869 
0.0008821986582881869 
0.001764397316576374 
0.0008821986582881869 
0.0008821986582881869 
0.0009151597919369828 
0.0009151597919369828 
0.0009151597919369828 
0.0009151597919369828 
0.0009151597919369828 
0.0009151597919369828 
0.0009151597919369828 
0.0009151597919369828 
0.006358412152843066 
0.0009151597919369828 
0.0009151597919369828 
0 
0 
0 
0 
0 
0.001346568047721843 
0 
0 
0 
0 
0 
0 
0 
0 
0 
0 
0 
0 
0 
0 
0 
0 
0 
0 
0 
0 
0 
0 
0 
0 
0 
0 
0 
0 
0 
0 
0 
0 
0 
0 
0 
0 
0 
0 
0 
0 
0 
0 
0 
0 
0 
0 
0 
0 
0 
0 
0 
0 
0 
0 
0 
0 
0 
0 
0 
0 
0 
0 
0 
0 
0 
0 
0 
0 
0 
0 
0 
0 
0 
0 
0 
0 
0 
0 
0.001304019796451214 
0.001304019796451214 
0.001304019796451214 
0.001304019796451214 
0.001304019796451214 
0.001304019796451214 
0.001304019796451214 
0.001304019796451214 
0 
0 
0 
2.260179036368923e-05 
0 
0.001042022960240273 
0 
0 
0 
0.02799722124259213 
0 
0 
0 
0 
0 
0 
0 
0 
0 
0 
0 
0 
0 
0.00380600049667468 
0 
0 
0.004633327885222308 
0 
0 
0.001891099075532694 
0 
0 
0 
0.002694197440683773 
0.002694197440683773 
0.002694197440683773 
0.002694197440683773 
0.002694197440683773 
0.002694197440683773 
0 
0 
0 
0 
0 
0 
0 
0 
0 
0 
0 
0 
0 
0 
0 
0.0009235467485454351 
0 
0 
0 
0 
0 
0 
0 
0 
0 
0 
0 
0 
0 
0.008883735462920794 
0 
0 
0 
0 
0.0026683880844462 
0.0026683880844462 
0 
0.0026683880844462 
0.0026683880844462 
0 
0 
0 
0.00955617099699361 
0 
0 
0 
0 
0.005350186692835234 
0.005350186692835234 
0.005350186692835234 
0.005350186692835234 
0.005350186692835234 
0.005350186692835234 
0.009845452551144433 
0.001434508634797254 
0.001434508634797254 
0.001434508634797254 
0.001434508634797254 
0.001434508634797254 
0.001434508634797254 
0.001434508634797254 
0.003262020979138212 
0.01214643654498055 
0.001434508634797254 
0.001434508634797254 
0.01495129004633787 
0.003059817636399705 
0.003059817636399705 
0.001529908818199853 
0.0008713045174542884 
0.0008713045174542884 
0.0008713045174542884 
0.0008713045174542884 
0.0008713045174542884 
0.0008713045174542884 
0.003259074933862019 
0.003259074933862019 
0.001629537466931009 
0.005927188984710945 
0.005927188984710945 
0.005927188984710945 
0.005927188984710945 
0.005927188984710945 
0.005927188984710945 
0.005927188984710945 
0.006050415291116655 
0.006050415291116655 
0.006050415291116655 
0.006050415291116655 
0.006050415291116655 
0.006050415291116655 
0.006050415291116655 
0.006071524170246844 
0.006071524170246844 
0.006071524170246844 
0.006071524170246844 
0.006071524170246844 
0.006071524170246844 
0.006071524170246844 
0 
0 
0 
0 
0 
0.003107131319923117 
0.006287043628586796 
0.00892079026075461 
0 
0.006013960790338865 
1.313811326299773e-05 
0 
0 
0 
0 
0 
0 
0.001106864291685528 
0 
0 
0 
0 
0 
0.0009854912602702767 
0 
0 
0 
0 
0 
0 
0 
0 
0.0001204886870003484 
0.01392285642840304 
0 
0.0001204886870003484 
0 
0.008563959196249256 
0.002032031230876474 
0.002032031230876474 
0.002032031230876474 
0.002032031230876474 
0.002032031230876474 
0.002032031230876474 
0.002032031230876474 
0.004064062461752949 
0.00871967828545785 
0.002032031230876474 
0.002032031230876474 
0 
0 
0 
0 
0.002470999962464063 
0 
0 
0.0004242667401013686 
0.0004242667401013686 
0.0004242667401013686 
0.0004242667401013686 
0.0004242667401013686 
0.0004242667401013686 
0.0006849808771596485 
0.0007743314212132935 
0.0007743314212132935 
0.0007743314212132935 
0.0007743314212132935 
0.0007743314212132935 
0.004755240953242357 
0.004755240953242357 
0.004755240953242357 
0.01435685997855763 
0.004755240953242357 
0.004755240953242357 
0.004755240953242357 
0 
0 
0 
0 
0 
0 
0 
0.01215410553692932 
0 
0 
0.001718159695994173 
0 
0 
0 
0 
0.000525385790461 
0 
0 
0 
0 
0 
0 
0 
0.002214553785887867 
0 
0 
0 
0.0008066986224297979 
0 
0 
0.00238334534771345 
0 
0 
0 
3.858148068532943e-05 
0.0009373387635922166 
0 
0 
0 
0.0008935512990111904 
3.858148068532943e-05 
0 
0 
0 
0 
0 
0.0007790048877611787 
0.0007790048877611787 
0.0007790048877611787 
0.0007790048877611787 
0.0007790048877611787 
0.000198749971785295 
0.000198749971785295 
0.000198749971785295 
0.000198749971785295 
0.000198749971785295 
0.000198749971785295 
0.000198749971785295 
0.00039749994357059 
0.01026109512970386 
0.000198749971785295 
0.000198749971785295 
0.000198749971785295 
0.000198749971785295 
0.000198749971785295 
0.000198749971785295 
0.003242009679471311 
0.003242009679471311 
0.001621004839735656 
0.0009213069192268332 
0.0009213069192268332 
0.0009213069192268332 
0.0009213069192268332 
0.0009213069192268332 
0.0009213069192268332 
0.0009213069192268332 
0.0027639207576805 
0.004724396133877967 
0.0009213069192268332 
0.0009213069192268332 
0.0009213069192268332 
0.0009213069192268332 
0.0009213069192268332 
0.0009213069192268332 
0.0009213069192268332 
0.00140253972701912 
0 
0 
0 
0 
0 
0 
0.008068634164047978 
0 
0 
0.0005788603494747229 
0.0005788603494747229 
0.0005788603494747229 
0.0005788603494747229 
0.0005788603494747229 
0.0005788603494747229 
0.0009136505738087672 
0.0009136505738087672 
0.0009136505738087672 
0.0009136505738087672 
0.0009136505738087672 
0.0009136505738087672 
3.60121030557498e-05 
0 
0 
0 
0.005991640895767899 
0.005991640895767899 
0.005991640895767899 
0.005991640895767899 
0.005991640895767899 
0.005991640895767899 
0.005991640895767899 
0 
0 
0 
0 
0 
0 
0 
0.005186802886150429 
0 
0 
0 
0 
0 
0 
0 
0 
0 
0 
0 
0 
0 
0 
0 
0 
0 
0 
0 
0 
0 
0 
0 
0 
0 
0 
0 
0 
0.005491525906580447 
0 
0 
0 
0 
0 
0 
0.008006945636437821 
0 
0 
0.009262816130875534 
0 
0 
0 
0 
0 
0.001661940093774506 
0.001661940093774506 
0.001661940093774506 
0.001661940093774506 
0.001661940093774506 
0.001661940093774506 
0.001661940093774506 
0.003323880187549013 
0.01104309824605005 
0.001661940093774506 
0.001661940093774506 
0.004898245017674612 
0.004898245017674612 
0.004898245017674612 
0.01311882904555725 
0.004898245017674612 
0.004898245017674612 
0.004898245017674612 
0.002105188423056795 
0.002105188423056795 
0.002105188423056795 
0.002105188423056795 
0.002105188423056795 
0.002105188423056795 
0.002105188423056795 
0.004210376846113591 
0.008106557840302805 
0.002105188423056795 
0.002105188423056795 
0.001694842074113443 
0.001694842074113443 
0.001694842074113443 
0.001694842074113443 
0.001694842074113443 
0.001694842074113443 
0.001694842074113443 
0.003389684148226886 
0.01120772000352731 
0.001694842074113443 
0.001694842074113443 
0.01442633105937088 
0.00335377938396514 
0.00335377938396514 
0.01537020785107172 
0.00335377938396514 
0.00335377938396514 
0.0006993799328934666 
0.0006993799328934666 
0.0006993799328934666 
0.0006993799328934666 
0.0006993799328934666 
0.0006993799328934666 
0.0006993799328934666 
0.0006993799328934666 
0.0006993799328934666 
0.0006993799328934666 
0.002194692301501237 
0.0006993799328934666 
0.0006993799328934666 
0.0009873464493552211 
0.0006993799328934666 
0.0009873464493552211 
0.0006993799328934666 
0.0006404267641093463 
0.0006404267641093463 
0.0006404267641093463 
0.0006404267641093463 
0.0006404267641093463 
0.0006404267641093463 
0.0006404267641093463 
0.001921280292328039 
0.0006404267641093463 
0.0006404267641093463 
0.0006404267641093463 
0.0004114662440392955 
0.0004114662440392955 
0.0004114662440392955 
0.0004114662440392955 
0.0004114662440392955 
0.0004114662440392955 
0.0004114662440392955 
0.0004114662440392955 
0.0004114662440392955 
0.0004114662440392955 
0.0004114662440392955 
0.000822932488078591 
0.0004114662440392955 
0.0004114662440392955 
0.0004114662440392955 
0.00710728601325661 
0.0004114662440392955 
0.0004114662440392955 
0.0004114662440392955 
0 
0 
0 
0 
0 
0.003115316118337052 
0.01195251614149834 
0 
0 
0.007006735314474591 
0.007006735314474591 
0.007006735314474591 
0.007006735314474591 
0.007006735314474591 
0.007006735314474591 
0.006955866987491727 
0.006955866987491727 
0.006955866987491727 
0.006955866987491727 
0.006955866987491727 
0.006955866987491727 
0.005979282225126505 
0.005979282225126505 
0.005979282225126505 
0.005979282225126505 
0.005979282225126505 
0.005979282225126505 
0.005979282225126505 
3.027339883980252e-05 
3.027339883980252e-05 
3.027339883980252e-05 
0.0001424186666466734 
3.027339883980252e-05 
0.0008097897291291033 
0.0008097897291291033 
0.0008097897291291033 
0.0008097897291291033 
0.0008097897291291033 
0.0008097897291291033 
0.008563959196249256 
0.004277759499815534 
0.004277759499815534 
0.008563959196249256 
0.004277759499815534 
0.004277759499815534 
0 
0 
0 
0 
0 
0 
0 
0 
0 
0 
0 
0 
0 
0 
0 
0 
0 
0 
0 
0 
0.00179914217531513 
0.00179914217531513 
0.00179914217531513 
0.00179914217531513 
0.00179914217531513 
0.00179914217531513 
0.00179914217531513 
0.00359828435063026 
0.00179914217531513 
0.00179914217531513 
0.001876086321610878 
0 
0 
0 
0 
0 
0 
0 
0 
0.004286199696433725 
0.004286199696433725 
0.004286199696433725 
0.004286199696433725 
0 
0 
0 
0 
0 
0 
0 
0.01488192387757362 
0 
0 
0 
0 
0 
0 
0 
5.421010862427522e-20 
0 
0 
0.0009203715321618295 
0.001015964996923235 
0.006900755213667394 
0.006900755213667394 
0.006900755213667394 
0.006900755213667394 
0.006900755213667394 
0.006900755213667394 
5.059961215523431e-06 
0 
0 
0 
0 
0 
0 
0.001424982306607757 
0 
0 
0.006000417005968628 
0.006000417005968628 
0.006000417005968628 
0.006000417005968628 
0.006000417005968628 
0.006000417005968628 
0.006000417005968628 
0 
0 
0 
0.001081571521173269 
0 
0 
0 
0 
0 
0 
0 
0 
0 
0 
0 
0 
0 
0.0139047162184202 
0 
0 
0 
0 
0 
0 
0 
0 
0 
0 
0.00026071413705828 
0.00026071413705828 
0.00026071413705828 
0.00026071413705828 
0.00026071413705828 
0.002522354518634226 
0.002522354518634226 
0.002522354518634226 
0.002522354518634226 
0.002522354518634226 
0.002522354518634226 
0.002522354518634226 
0.005044709037268452 
0.005044709037268454 
0.002522354518634226 
0.002522354518634226 
0 
0 
0 
0 
0 
0 
1.626303258728257e-19 
0.002075855334989811 
0 
0 
0 
0 
0 
0 
0 
0 
0 
0 
0.00087656305124379 
0.00087656305124379 
0.00087656305124379 
0.00087656305124379 
0.00087656305124379 
0.00087656305124379 
0.00087656305124379 
0.002629689153731372 
0.0091382060415963 
0.00087656305124379 
0.00087656305124379 
0.00087656305124379 
0.001007265180763303 
0 
0 
0 
0 
0 
0 
0 
0 
0 
0 
0 
0 
0 
0 
0 
0 
0 
0.006068477229029476 
0.006068477229029476 
0.006068477229029476 
0.006068477229029476 
0.006068477229029476 
0.006068477229029476 
0.006068477229029476 
0.005950519596318425 
0.002028940346434072 
0.002028940346434072 
0.0238936060360783 
0.002028940346434072 
0.002028940346434072 
0.005950519596318425 
0.0004194846858378735 
0.0004194846858378735 
0.0004194846858378735 
0.0004194846858378735 
0.0004194846858378735 
0.0004194846858378735 
0.0004194846858378735 
0.0004194846858378735 
0.0004194846858378735 
0.0004194846858378735 
0.0004194846858378735 
0.000838969371675747 
0.0004194846858378735 
0.0004194846858378735 
0.0004194846858378735 
0.003018241334564015 
0.0004194846858378735 
0.0004194846858378735 
0.0004194846858378735 
9.094351640694269e-05 
9.094351640694269e-05 
9.094351640694269e-05 
9.094351640694269e-05 
9.094351640694269e-05 
9.094351640694269e-05 
0.0002728305492208281 
0.000700804952835697 
9.094351640694269e-05 
9.094351640694269e-05 
9.094351640694269e-05 
0 
0 
0 
0.001007265180763303 
0.001007265180763303 
0.001007265180763303 
0.001007265180763303 
0.0005615507980079946 
0.0005615507980079946 
0.0005615507980079946 
0.0005615507980079946 
0.0005615507980079946 
0.0005615507980079946 
0.004495265858309201 
0.004495265858309201 
0.004495265858309201 
0.009945677972891717 
0.004495265858309201 
0.004495265858309201 
0.002099871053536386 
0.002099871053536386 
0.002099871053536386 
0.002099871053536386 
0.002099871053536386 
0.002099871053536386 
0.002099871053536386 
0.004199742107072771 
0.002099871053536386 
0.002099871053536386 
0 
0 
0 
0 
0 
0 
0 
0.00481480508273283 
0 
0 
0 
0 
0 
0 
0 
0 
0 
0 
0 
0 
0 
0 
0 
0 
0 
0 
0 
0 
0 
0 
0.001959178313381141 
0.001959178313381141 
0.001959178313381141 
0.001959178313381141 
0 
0 
0 
0.0002150682915899672 
0.0002150682915899672 
0 
0 
0 
0 
0 
0.0011433639044589 
0.0011433639044589 
0.0011433639044589 
0.0011433639044589 
0.0011433639044589 
0.0011433639044589 
0.0011433639044589 
0.0022867278089178 
0.0011433639044589 
0.0011433639044589 
0.0001297339910952679 
0.0001297339910952679 
0.0001297339910952679 
0.0001297339910952679 
0.0001297339910952679 
0.0001297339910952679 
0.0003892019732858036 
0.0003892019732858036 
0.0001297339910952679 
0.0001297339910952679 
0.0001297339910952679 
0.000799726214674486 
0.000799726214674486 
0.000799726214674486 
0.000799726214674486 
0.000799726214674486 
0.000799726214674486 
0 
0 
0 
0 
0 
0 
0 
0 
0 
0.001201433013672111 
0 
0 
0.001541736893827267 
0 
0 
0 
0 
0 
0 
0 
0 
0 
0 
0 
0 
0 
0 
0 
0 
0 
0 
0 
0 
0 
0 
0 
0 
0 
0 
0 
0 
0 
0 
0.00299523267234008 
0 
0 
0 
0.006859053130939054 
0.006859053130939054 
0.006859053130939054 
0.006859053130939054 
0.006859053130939054 
0.006859053130939054 
0.004633238493850706 
0.004633238493850706 
0.004633238493850706 
0.004633238493850706 
0.004633238493850706 
0.004633238493850706 
0.006023814308286666 
0.006023814308286666 
0.006023814308286666 
0.006023814308286666 
0.006023814308286666 
0.006023814308286666 
0.006023814308286666 
0.0004619500919620386 
0.0004619500919620386 
0.0004619500919620386 
0.0004619500919620386 
0.0004619500919620386 
0.0004619500919620386 
0.0004619500919620386 
0.00101012215781041 
0.00101012215781041 
0.00101012215781041 
0.00101012215781041 
0.00101012215781041 
0.002839141682481847 
0.002839141682481847 
0.002839141682481847 
0.002839141682481847 
0.002839141682481847 
7.85804927119788e-05 
7.85804927119788e-05 
7.85804927119788e-05 
7.85804927119788e-05 
7.85804927119788e-05 
7.85804927119788e-05 
0.01660628880755415 
0.005272459155789796 
0.005272459155789796 
0.01708306381479037 
0.005272459155789796 
0.005272459155789796 
0 
0 
0 
0.001350856842108919 
0 
0 
0 
0 
0 
0 
0 
0 
0 
0.001465251994247535 
0.01860593194614591 
0.0002944083048098772 
0.001465251994247535 
0 
0 
0.008389231830291968 
0 
0 
0.004756299834331549 
0 
0.0004155414640951411 
0.0002944083048098772 
0.0063179682821589 
0 
0 
0.01042946635349523 
0 
0 
0 
0.0004481042101042096 
0.004733958737299556 
0 
1.476176089925045e-05 
0 
0 
0 
0 
0.002853829863265416 
0.0002150066719220101 
0 
0 
0 
0 
0 
0.001312924806228289 
0 
0.0003132165884068248 
0.0004816116642274212 
0.0001072819437003113 
0 
0 
0 
0 
0 
0 
0 
0 
0 
0 
0 
0 
0 
0 
0 
0 
0 
0 
0 
0 
0 
0 
0 
0 
0 
0 
0 
0 
0 
0 
0 
0 
0 
0 
0 
0 
0 
0 
0 
0 
0 
0 
0.0004285991588101412 
0.001906093214095569 
0 
0.0003525160447781116 
0.0003525160447781116 
0.0003525160447781116 
0.001071915157822431 
0.0003525160447781116 
0.0003525160447781116 
0.0003525160447781116 
0 
0 
0 
0 
0 
0 
0 
0 
0 
0 
0 
0 
5.398757012225306e-06 
0.0001722127463479645 
0.0001722127463479645 
0.0001722127463479645 
0.0001722127463479645 
0.0001722127463479645 
0.0001722127463479645 
0.0001722127463479645 
0.0001722127463479645 
0.00184398762243301 
0.0001722127463479645 
1.078178636553198e-05 
0 
0 
0 
0 
0 
0 
0 
0 
0 
0 
0 
0.002361214227249727 
0 
0 
0 
0 
0 
0 
0 
0 
0 
0 
1.91304152271922e-05 
0 
0 
0 
0 
0 
8.981043278898295e-05 
0 
0 
0 
0 
0 
0 
0 
0 
0 
0 
0 
0 
0 
0 
0 
0 
0.0005255206967407706 
0.0005255206967407706 
0.0005255206967407706 
0.0005255206967407706 
0.0005255206967407706 
0.0005255206967407706 
0 
0 
0 
0 
0 
0 
0 
0 
0 
0.002743355633167875 
0 
0 
0 
1.402096934665404e-05 
0 
0 
0 
0 
0 
0 
0.001227262170385834 
0 
0.0001242719731807972 
0.0001242719731807972 
0.0001242719731807972 
0.0005786638283998688 
0.0001242719731807972 
0.0001242719731807972 
0.0001242719731807972 
0.0001242719731807972 
0.0001242719731807972 
0 
0 
0 
0.002000997647666175 
0 
0 
0 
0 
0 
0 
0.001169689957431884 
0 
0 
0.0007028607830260839 
0 
0 
0 
2.954148022011853e-05 
2.954148022011853e-05 
2.954148022011853e-05 
0.0005853830595991572 
5.598081371159848e-05 
2.954148022011853e-05 
2.954148022011853e-05 
5.598081371159848e-05 
2.954148022011853e-05 
0 
0 
0 
0 
0.0002460489981537699 
0.0002460489981537699 
0.0002460489981537699 
0.0002460489981537699 
0.0002460489981537699 
0.0002460489981537699 
0.0002460489981537699 
0.0002460489981537699 
0.0002460489981537699 
0 
0 
0 
0 
0 
0 
0 
0 
0 
0 
0 
0 
0 
0 
0 
0.002519410589590059 
0 
0 
0 
0 
0 
0 
0 
0 
0.00181235937422351 
0 
0 
0 
0 
0 
0 
0 
0.0005235656160476851 
0.0005235656160476851 
0.0005235656160476851 
0.0005235656160476851 
0.0005235656160476851 
0.0005235656160476851 
0.0004268290261561726 
0 
0 
0.0007702089887327258 
0 
0 
0 
0 
0 
0 
0 
0 
0 
0 
0 
0 
0 
0 
0 
0 
0 
0 
0.001950337282310547 
0 
0.0001143342904816998 
0.0001143342904816998 
0.0001143342904816998 
0.0001980582041525621 
0.0001143342904816998 
0.0001143342904816998 
0.0001143342904816998 
0.0001143342904816998 
0.0001143342904816998 
0 
0 
0 
0 
0 
0 
0 
0 
0 
0 
0 
0 
0 
0 
0 
0 
0 
0 
0 
0 
0 
0 
0 
0 
0 
0 
0 
0.001285675032116516 
0 
0.0004513754995424508 
0.0002099221424874765 
0 
0.001624136895480623 
0.0004514010444080134 
0 
0 
0 
0 
0 
0 
0 
0 
0 
0 
0 
0 
0 
0 
0 
0 
0 
0 
0.000171125619683078 
0.0025155769658409 
0 
0 
0 
0 
0 
0 
0 
0 
0 
0 
0 
0 
0 
0 
0 
0 
0 
0 
1.119255434598858e-05 
0 
0 
0 
0 
0 
0 
0.0009211100080691358 
0 
0.0002130552748028822 
0.0002130552748028822 
0.0002130552748028822 
0.0002130552748028822 
0.0002130552748028822 
0.0002130552748028822 
0.0002130552748028822 
0.0002130552748028822 
0.001408385291180709 
0.0002130552748028822 
0.0001831425910613994 
0.0001169380517695455 
0.0001169380517695455 
0.0001831425910613994 
0.0001169380517695455 
0.0001169380517695455 
0.0001831425910613994 
0.0001831425910613994 
0.002026411845409323 
0.0001831425910613994 
0 
0 
0 
0 
0 
0 
0 
0 
0 
0 
0 
0 
5.398757012225306e-06 
5.398757012225306e-06 
5.398757012225306e-06 
5.398757012225306e-06 
5.398757012225306e-06 
5.398757012225306e-06 
3.681274002320912e-05 
0 
0 
0 
0 
0 
6.940193089784969e-05 
6.940193089784969e-05 
6.940193089784969e-05 
6.940193089784969e-05 
6.940193089784969e-05 
6.940193089784969e-05 
6.940193089784969e-05 
6.940193089784969e-05 
6.940193089784969e-05 
0 
0 
0 
0 
0 
0 
0 
0 
0 
0 
0.0001820408752717444 
0 
0 
3.268159669856944e-05 
0 
0 
0 
0 
4.613866201423131e-05 
4.613866201423131e-05 
4.613866201423131e-05 
4.613866201423131e-05 
4.613866201423131e-05 
4.613866201423131e-05 
4.613866201423131e-05 
4.613866201423131e-05 
4.613866201423131e-05 
4.613866201423131e-05 
9.227732402846263e-05 
0.0005042739958272816 
4.613866201423131e-05 
4.613866201423131e-05 
4.613866201423131e-05 
4.613866201423131e-05 
4.613866201423131e-05 
4.613866201423131e-05 
9.829958271042236e-06 
9.829958271042235e-06 
0 
0 
0 
0 
0 
0 
0 
0 
0 
0 
0 
0 
0 
0 
0 
0 
0 
0.0004665637062707984 
0.0004665637062707984 
0.0004665637062707984 
0.0008589603456867404 
0.0004665637062707984 
0.0004665637062707984 
8.950298210434779e-06 
8.950298210434779e-06 
8.950298210434779e-06 
8.950298210434779e-06 
8.950298210434779e-06 
0 
0 
0 
0 
0 
0 
0 
0 
0 
0 
0 
0.0004455672919036154 
0 
0 
0.001049256727211424 
0 
0 
0.001101965945655136 
0 
0 
0 
0 
0 
0 
0 
0 
0 
0 
3.448197010763509e-05 
0 
0 
1.076990330877696e-05 
0 
3.448197010763509e-05 
0 
0 
0 
0 
0 
0 
0 
0.0003834849007231369 
0 
0 
0 
0 
0.0004651099590324956 
0 
1.04288285965146e-05 
1.04288285965146e-05 
1.04288285965146e-05 
0.000999728873947068 
1.04288285965146e-05 
1.04288285965146e-05 
1.04288285965146e-05 
1.04288285965146e-05 
1.04288285965146e-05 
4.132159118257801e-05 
4.132159118257801e-05 
4.132159118257801e-05 
4.132159118257801e-05 
4.132159118257801e-05 
4.132159118257801e-05 
4.132159118257801e-05 
4.132159118257801e-05 
4.132159118257801e-05 
4.132159118257801e-05 
0.0003192461641453117 
4.132159118257801e-05 
0.0002704663780318804 
0.0012850562031434 
4.132159118257801e-05 
4.132159118257801e-05 
0.001073719879196736 
4.132159118257801e-05 
3.030854389059676e-05 
3.030854389059676e-05 
3.030854389059676e-05 
3.030854389059676e-05 
3.030854389059676e-05 
3.030854389059676e-05 
3.030854389059676e-05 
3.030854389059676e-05 
0.001068685128375736 
3.030854389059676e-05 
3.030854389059676e-05 
3.030854389059676e-05 
3.030854389059676e-05 
0.0009070699012166067 
3.030854389059676e-05 
0 
0 
0 
0 
0 
0 
0 
0 
0 
0 
0.002319428217389405 
0 
0 
0 
0 
8.607441200625646e-06 
0 
0 
0 
0 
0 
0 
0 
0 
0 
0 
0 
0 
0 
0 
0 
2.537782240431095e-06 
0 
0 
0 
0 
0 
0 
0 
8.979565779847407e-05 
8.979565779847407e-05 
8.979565779847407e-05 
8.979565779847407e-05 
8.979565779847407e-05 
8.979565779847407e-05 
8.979565779847407e-05 
8.979565779847407e-05 
8.979565779847407e-05 
0 
0 
0 
0 
0 
0 
0 
0 
0 
0 
0 
0.001805393960786727 
0 
0 
0 
0 
0 
0 
0 
0 
0 
0 
0 
0.00124039956071965 
0 
0 
0 
0 
0.001056260710206778 
0 
0 
0.0002744501251901945 
0 
2.727539114402797e-05 
0 
0 
0 
0 
2.643933349147995e-05 
2.643933349147995e-05 
2.643933349147995e-05 
2.643933349147995e-05 
2.643933349147995e-05 
2.643933349147995e-05 
0 
0 
0 
0 
6.620453929185385e-05 
6.620453929185385e-05 
6.620453929185385e-05 
6.620453929185385e-05 
0 
0 
0 
0 
0 
1.453526828959165e-05 
0 
0 
0 
0 
0 
0 
0.0009885605785720849 
0 
1.419096031218814e-06 
1.419096031218814e-06 
1.419096031218814e-06 
1.419096031218814e-06 
1.419096031218814e-06 
0.0004581059239581554 
0.0004581059239581554 
0.0004581059239581554 
0.0004581059239581554 
0.0004581059239581554 
0.0004581059239581554 
0.0004581059239581554 
3.514546928732543e-05 
4.24959036226114e-06 
4.24959036226114e-06 
4.24959036226114e-06 
4.24959036226114e-06 
4.24959036226114e-06 
4.24959036226114e-06 
8.739854377666274e-06 
4.24959036226114e-06 
0 
0 
0 
0 
0 
0 
0 
0 
0.002494410645771358 
0 
0 
0 
4.85076903409399e-05 
4.85076903409399e-05 
0.0004563328763847402 
0.0004563328763847402 
0.0004563328763847402 
0.0004563328763847402 
0.0004563328763847402 
0.0004563328763847402 
0.0004563328763847402 
0 
0 
0 
0 
0 
0 
0 
0.0006818598546854266 
0 
0 
0 
0 
0 
0 
0 
0 
0 
0.001415258403523822 
0 
0 
0 
0.0004526191991758648 
0.0004526191991758648 
0.0004526191991758648 
0.0004526191991758648 
0.0004526191991758648 
0.0004526191991758648 
0.0004526191991758648 
8.673617379884035e-19 
0 
0.002675681038095494 
0 
0 
0 
0 
0 
0 
0 
0 
0 
0 
-1.409462824231156e-18 
-1.409462824231156e-18 
0.005631567883420054 
0 
0.001958148518234824 
0 
0.001438855570120094 
4.336808689942018e-19 
0 
-4.336808689942018e-19 
0 
0 
0 
0 
0 
0 
0.0002934269258724263 
0.0002934269258724263 
0.0002934269258724263 
0.0002934269258724263 
0.0002934269258724263 
0.0002934269258724263 
0.0002934269258724263 
0.0002934269258724263 
0.0002934269258724263 
0.0002934269258724263 
0.0002934269258724263 
0.005678292536606679 
0.0002934269258724263 
0.0008802807776172792 
0.005776029383392819 
0.0002934269258724263 
0.0002934269258724263 
0.0002934269258724263 
0.0008181498485557427 
0 
0.0008181498485557427 
0 
0 
0 
0 
0 
0 
0 
0 
0 
0 
0 
0 
0 
0.004305515680346777 
0 
0 
0.004905854159873933 
0 
0.001226100079829853 
0.001226100079829853 
0.001226100079829853 
0.001226100079829853 
0.001226100079829853 
0.001226100079829853 
0.001226100079829853 
0.001226100079829853 
0.001226100079829853 
0.00648661824065476 
0.001226100079829853 
0.001226100079829853 
0.007848704088937966 
0.001226100079829853 
0 
0 
0 
0 
0 
0 
0 
0 
0 
0 
0 
0 
0 
0 
0 
0 
0 
0 
0 
0 
0 
0 
0 
0.0009783664575508015 
0 
0 
0 
0 
0 
0 
0 
0 
0 
0 
0 
0.0004676824147024964 
0.00422953353018901 
0 
0 
0 
0 
0.001403047244107489 
0.004822175828357337 
0 
0 
0 
0.0005099660375224586 
0.0005099660375224586 
0.0005099660375224586 
0.0005099660375224586 
0.0005099660375224586 
0.000614043821016297 
0.000614043821016297 
0.000614043821016297 
0.003110139640376231 
0.000614043821016297 
0.000614043821016297 
0.000614043821016297 
0.000614043821016297 
0.001469392436565852 
0.009991828246841333 
0.000614043821016297 
0.001469392436565852 
0.000614043821016297 
0.0007618506601136609 
0 
0.0007618506601136609 
0 
0.000826246917530948 
0.000826246917530948 
0.000826246917530948 
0.000826246917530948 
0.000826246917530948 
0.000826246917530948 
0.000826246917530948 
0.000826246917530948 
0.000826246917530948 
0.008024985991095187 
0.000826246917530948 
0.000826246917530948 
0.000826246917530948 
0 
0 
0 
0 
0 
0 
0 
0 
0 
0 
0 
0 
0 
0 
0 
0.0006929796660038685 
0 
0 
0 
0 
0 
0 
0 
0 
0 
0.004679068235647387 
0 
0 
0 
0 
0.003061243220988874 
0 
0 
0.002397424643041612 
0 
0 
0 
0 
0 
0 
0 
0.001851466155085444 
0 
0 
0 
0 
0 
0 
0 
0 
0 
0 
0 
0 
0.005268876499579181 
0 
0 
0 
0 
0 
0 
0 
0 
0 
0 
0 
0.0009586382522931612 
0 
0 
0 
0 
0 
0 
0 
0 
0 
0 
0 
0 
0 
0.002277134659706305 
0.0003554529843472176 
0.0003554529843472176 
0.002277134659706305 
0.0003554529843472176 
0.0003554529843472176 
0.0003554529843472176 
0.0003554529843472176 
0.002277134659706305 
0.0003554529843472176 
0.0005487970177821149 
0.0004199009954921834 
0 
0 
0.0006089074861463533 
0.0003525045827029182 
0.0003525045827029182 
0.0003525045827029182 
0.0003525045827029182 
0.004640165276416885 
0.004640165276416885 
0.004640165276416885 
0.004640165276416885 
0.004640165276416885 
0.004640165276416885 
0 
0 
0 
0 
0 
0 
0.0003923401066588185 
0 
0 
0 
0 
0 
0 
0 
0 
0 
0 
0 
0 
0 
0 
0 
0 
0 
0 
0 
0 
0 
0.0008152307464668635 
0.0008152307464668635 
0.0008152307464668635 
0.0008152307464668635 
0.0008152307464668635 
0.0008152307464668635 
0.0008152307464668635 
0.0008152307464668635 
0.0008152307464668635 
0.009747401212113229 
0.0008152307464668635 
0.0008152307464668635 
0.0008152307464668635 
0 
0 
0 
0 
0 
0 
0 
0 
0 
0 
0 
0 
0 
0 
0 
0 
0 
0 
0 
0.0003225663120403407 
0.0003225663120403407 
0.0003225663120403407 
0.0003225663120403407 
0.0003225663120403407 
0.00199668234809563 
0.00199668234809563 
0.00199668234809563 
0.00199668234809563 
0.00199668234809563 
0.00199668234809563 
0.00199668234809563 
0.00199668234809563 
0.00199668234809563 
0.0005663137274357107 
0 
0 
0 
0 
0 
0 
0 
0.004637869970246508 
0 
0 
0.003937610297220034 
0 
0 
0 
0 
0 
0 
0 
0 
0.002843999403830519 
0 
0 
0 
0 
0 
0 
0.0008553486155495546 
0.0008553486155495546 
0.0008553486155495546 
0.0008553486155495546 
0.0008553486155495546 
0.0008553486155495546 
0.0008553486155495546 
0.0008553486155495546 
0.0008553486155495546 
0.0008553486155495546 
0 
0 
0.0007896789780415253 
0.0007896789780415253 
0.0007896789780415253 
0.0007896789780415253 
0.0007896789780415253 
0.0007896789780415253 
0.0007896789780415253 
0.0007896789780415253 
0.0007896789780415253 
0.0007896789780415253 
0.0007896789780415253 
0.0007896789780415253 
0.002255468244963653 
0.0007896789780415253 
0.0007896789780415253 
0.002138845038760597 
0.0007896789780415253 
0.0007896789780415253 
0.005048034845719567 
0.0007896789780415253 
0.0007896789780415253 
0.0007896789780415253 
0.0005355134722401331 
0.0005355134722401331 
0.0005355134722401331 
0.0005355134722401331 
0.0005355134722401331 
0 
0 
0 
0 
0 
0 
0 
0.0008337002700533351 
0.0008337002700533351 
0.0008337002700533351 
0.0008337002700533351 
0.0008337002700533351 
0.0008337002700533351 
0.0008337002700533351 
0.0008337002700533351 
0.0008337002700533351 
0.0008337002700533351 
0.0008337002700533351 
0.0008337002700533351 
0 
0 
0.03104506995958607 
0.001056531863679033 
0.001056531863679033 
0.000363688021121938 
0.000363688021121938 
0.000363688021121938 
0.0006382948870363189 
0.000274606865914381 
0.000274606865914381 
0.000274606865914381 
0.000418236976642714 
0.000418236976642714 
0.000418236976642714 
0.000418236976642714 
0.03226007454695095 
0.0003821135219134809 
0.0003821135219134809 
0.0003821135219134809 
0.0003821135219134809 
0.0003821135219134809 
0.0003821135219134809 
0.005990967348227887 
0 
0 
0.02293172744539753 
0 
0 
0 
0.001304909984476634 
0.01385632738338119 
0 
0.001304909984476634 
0 
0 
0.006595006752375249 
0 
0 
0 
0 
0.009167328045315696 
0 
0 
0 
0 
0 
0 
0 
0 
0 
0.002262020894900891 
0 
0.002262020894900891 
0 
0.0002497745228791297 
0 
0.0005075890291153261 
0 
0 
0 
0 
0 
0.004626598832430162 
0 
0 
0 
0 
0 
0 
0 
0 
0 
0.0002926120944159304 
0 
0.0003779362450594966 
0 
0 
0 
2.509129707191157e-05 
0 
0 
0.008636415959759131 
0 
0 
0 
0 
0 
0 
0 
0 
0 
0 
0 
0 
0 
0.0003413253142293258 
0 
0 
0 
0 
0 
0 
0 
0 
0 
0 
0 
0 
0 
0 
0 
0 
0 
0 
0 
0 
0 
0 
0 
0 
0 
0 
0.002332322019715261 
0 
0 
0 
0 
0 
0 
0 
0 
0 
0 
0 
0 
0 
0 
0 
0 
0 
0 
0 
0 
0 
0 
0 
0 
0 
0 
0 
3.194897221676911e-05 
0 
0 
0 
0 
0 
0 
0 
0 
0 
0 
0 
0 
0 
0 
0 
0 
0.001123926680018208 
0 
0 
0 
0 
0 
0 
0 
0 
0 
0 
0.008636415959759131 
0.008636415959759131 
0.008636415959759131 
0.008636415959759131 
0 
0 
0 
0 
0 
0 
0.0001248867810701405 
0.0001248867810701405 
0.0001248867810701405 
0.0001248867810701405 
0.0001248867810701405 
0.0001248867810701405 
0.0001248867810701405 
0.0001248867810701405 
0.0001248867810701405 
0.0001248867810701405 
0.0001248867810701405 
0.0001248867810701405 
0.0001248867810701405 
0.0001248867810701405 
0.0002497735621402811 
0.0001248867810701405 
0.0001248867810701405 
0 
0 
0 
0 
0 
0 
0 
0 
0 
0 
0 
0 
0 
0 
0 
0 
0 
0.0004064331424250948 
0 
0 
0.0004064331424250948 
0 
0 
0 
0 
0 
0 
0 
0 
0 
0.001195803443207033 
0 
0 
0 
0.001195803443207033 
0 
0 
0 
0 
0 
0 
0 
0 
0 
0 
0 
0 
0 
0 
0 
0 
0.0008321655894120022 
0 
0 
0 
0 
0 
0 
0 
0 
0 
0 
0 
0 
0 
0 
0 
0 
0 
0 
0 
0 
0 
0 
0.0002591730604456119 
0 
0.0004973156920757605 
0 
0.0001742218055041299 
0 
1.615894239636007e-05 
0 
0 
3.804722205543582e-06 
0 
0 
0 
0 
0 
0 
0 
0 
0 
0.0002258689589138352 
0 
0 
0 
0 
0 
0 
0 
0 
0 
0 
0 
0 
0 
0 
0 
0 
0 
0 
0.005402466608075029 
0 
0 
0.005402466608075029 
0 
0 
0 
0 
0 
0.0001201886368967022 
0.001234872941905669 
0 
0 
0.002236963521390715 
0 
0.002947193310805684 
0.007805383400285406 
0 
1.664508571881849e-05 
2.219342389538544e-06 
2.219342389538544e-06 
2.219342389538544e-06 
2.219342389538544e-06 
2.268319196434151e-05 
2.268319196434151e-05 
2.268319196434151e-05 
2.268319196434151e-05 
2.268319196434151e-05 
2.268319196434151e-05 
2.268319196434151e-05 
2.268319196434151e-05 
2.268319196434151e-05 
5.314616794986401e-05 
2.268319196434151e-05 
0.0001220598626827446 
2.268319196434151e-05 
0.0002727016011459181 
2.268319196434151e-05 
0.0007286144857546454 
0.0007286144857546454 
0.0007286144857546454 
0.0007286144857546454 
0.0007286144857546454 
0.0007286144857546454 
0.0007286144857546454 
0.0007286144857546454 
0.0007286144857546454 
0.0007286144857546454 
0.0007286144857546454 
0.0007286144857546454 
0.0007286144857546454 
0.0007286144857546454 
0.0007286144857546454 
0.0007286144857546454 
0.0007286144857546454 
0 
0 
0 
0 
0 
0 
0 
0 
0 
0 
0 
0 
0 
0 
0 
0 
0 
0 
0 
0 
0 
7.52018313753668e-05 
0.0003452474281410968 
0 
0.0001982341639178992 
0 
2.837560373301906e-20 
0 
0 
0.0003397930216169334 
0 
0.002676767297980176 
0.002676767297980176 
0.002676767297980176 
0.002676767297980176 
0.002676767297980176 
0.002676767297980176 
0 
0 
0 
0 
0 
0 
0 
0 
0 
0.001842259106544907 
0.001842259106544907 
5.628907392216898e-05 
5.628907392216898e-05 
5.628907392216898e-05 
5.628907392216898e-05 
5.628907392216898e-05 
5.628907392216898e-05 
5.628907392216898e-05 
5.628907392216898e-05 
5.628907392216898e-05 
5.628907392216898e-05 
5.628907392216898e-05 
5.628907392216898e-05 
5.628907392216898e-05 
5.628907392216898e-05 
5.628907392216898e-05 
5.628907392216898e-05 
0.01174352202885652 
5.628907392216898e-05 
0.0001296761340228532 
5.628907392216898e-05 
5.628907392216898e-05 
6.48380670114266e-05 
0.005647895071671123 
5.628907392216898e-05 
0.0001211271409335956 
0.0009346066932302075 
5.628907392216898e-05 
5.628907392216898e-05 
0.0004486485160961236 
0.0004486485160961236 
0.0004486485160961236 
0.005453885307222946 
0.0004486485160961236 
0.0004486485160961236 
0.0004486485160961236 
0.0004486485160961236 
0.001661792137084238 
0.0004486485160961236 
0.0004486485160961236 
0 
0 
0 
0 
0 
0 
0 
0.01138325111919737 
0 
0 
0 
0 
0 
0 
0 
0 
0 
0 
0 
0 
0 
0 
0 
0 
0 
0 
0 
0.000473081682198212 
0 
0 
0 
0 
0 
0 
0 
0.002972590480926643 
0 
0 
0.001456706964062298 
0 
0 
0 
0 
0 
0 
0 
0 
0 
0 
0 
0 
0 
0 
0 
0 
0 
0 
0 
0 
0 
0 
0 
0 
0 
0 
0 
0 
0 
0.0004392611494128218 
0.0009440934127030726 
0 
0.0006493259229646587 
0.001700319753805859 
0 
0 
0 
9.236407581840919e-06 
0.001887570923566408 
0 
0.0006585623305464995 
0.0006585623305464995 
0.0006585623305464995 
0 
0 
5.79394235897993e-05 
0.0006585623305464995 
0.0003728526204073508 
0 
0 
0 
0 
0 
0 
0 
0 
0.0001392878497220867 
0.0001392878497220867 
0.0001392878497220867 
0.0001392878497220867 
0.0001392878497220867 
0.0001392878497220867 
0.0001392878497220867 
0.0001392878497220867 
0.0001392878497220867 
0.0001392878497220867 
0.0001392878497220867 
0.0001392878497220867 
0.003029409438603148 
0.0001392878497220867 
0.0001392878497220867 
0.0001392878497220867 
0.0001392878497220867 
0.0001392878497220867 
0.0001392878497220867 
0.002311490313009214 
0.0001392878497220867 
0.0001392878497220867 
0.00309677835375177 
0.0001392878497220867 
0 
0 
0 
0 
0 
0 
0 
0 
0 
0 
0 
0 
0 
0 
0 
0 
0.0006216114179059735 
0.0006216114179059735 
0.0006216114179059735 
0.0006216114179059735 
0.0006216114179059735 
0.0006216114179059735 
0.0006216114179059735 
0.0006216114179059735 
0.0006216114179059735 
0 
0 
0 
0 
0 
0.0002218397731513084 
0.0002218397731513084 
0 
0 
0 
0 
0 
0 
0 
0.001624299717661119 
0 
0 
0 
0 
0 
0.003276347486065852 
0 
0 
0 
0 
0 
0 
0.002932539223038164 
0 
0 
0 
0 
0 
0 
0 
0 
0 
0.006360296799279012 
0 
0 
0 
0 
0 
0 
0 
0 
0 
0 
0 
0.006169886640575715 
0 
0 
0 
0.0004158871097577744 
0.002540951376314624 
0 
0 
0 
0 
8.456013881580926e-05 
0.002022753050462503 
0 
0.0006509710003440183 
0.0006509710003440183 
0 
0 
0 
0 
0 
0 
0 
0.007912571654958922 
0 
0.0003381378664956201 
0.0001998402077358495 
0 
0 
0 
0 
0 
0.009596924005642988 
0 
0 
0 
0 
0 
0 
0 
0 
0 
0 
0 
0 
0 
0 
0 
0 
0 
0.0008249346359026549 
0.0008249346359026549 
0.0008249346359026549 
0.0008249346359026549 
0.0008249346359026549 
0.0008249346359026549 
0.0008249346359026549 
0.0008249346359026549 
0.0008249346359026549 
0.002675927261605235 
0.002675927261605235 
0.002675927261605235 
0.002675927261605235 
0.002675927261605235 
0.002675927261605235 
4.843251936611868e-05 
4.843251936611868e-05 
4.843251936611868e-05 
4.843251936611868e-05 
4.843251936611868e-05 
4.843251936611868e-05 
4.843251936611868e-05 
4.843251936611868e-05 
4.843251936611868e-05 
4.843251936611868e-05 
4.843251936611868e-05 
0.004494379247735034 
0 
0 
0.009398378357839342 
0 
0 
0 
0 
0 
0 
0 
0.0006470582272824945 
0.0006470582272824945 
0.0006470582272824945 
0.0006470582272824945 
0.0006470582272824945 
0.0006470582272824945 
0.0006470582272824945 
0.0006470582272824945 
0.0006470582272824945 
0 
0 
0 
0 
0 
0 
0 
0 
0 
0 
0.0003313486312709754 
0 
0 
0.001570684735612185 
0 
0 
0 
0.0001866966248658236 
0 
0 
0 
0 
0 
0 
0 
0 
0 
0 
0 
0 
0 
0.0001331689734328242 
0 
6.188366701037291e-07 
0 
0 
0 
0 
0.0004520784498074755 
0.0004520784498074755 
0.0004520784498074755 
0.0004520784498074755 
0.0004520784498074755 
0.0004520784498074755 
0.0004520784498074755 
3.740577476607498e-06 
0 
0 
0 
0 
0 
0 
0 
0 
0.001598566181176879 
0 
0 
0.001311599941545393 
0 
0 
0 
0 
0 
0 
0 
0 
8.060725666262565e-05 
0 
0.003988473625196094 
0.003988473625196094 
0.003988473625196094 
0.003988473625196094 
0.003988473625196094 
0.003988473625196094 
0.003988473625196094 
0.0004838183152989042 
0.0004838183152989042 
0.0004838183152989042 
0.0004838183152989042 
0.0004838183152989042 
0.0004838183152989042 
0.0004819418837704343 
0.0004819418837704343 
0.0004819418837704343 
0.0004819418837704343 
0.0004819418837704343 
0.0004819418837704343 
0.0004819418837704343 
0.0004819418837704343 
0.0004819418837704343 
0.0004819418837704343 
0.007514276661929995 
0.0004819418837704343 
0.0004819418837704343 
0.007456019437615081 
0.0004819418837704343 
0.0004819418837704343 
0.0004819418837704343 
0 
0 
0 
0 
0 
0 
0 
0 
0.00282982305765669 
0 
0 
0 
0 
0 
0 
0 
0 
0 
0.0004562131164646258 
0.0004562131164646258 
0.0004562131164646258 
0.0004562131164646258 
0.0004562131164646258 
0.0004562131164646258 
0.0004562131164646258 
3.166487446482724e-05 
0 
0 
0 
0 
0 
0 
0 
0 
0 
0 
0 
0 
0 
0 
0 
0 
0 
0 
0 
0 
2.535776349899015e-05 
2.535776349899015e-05 
0 
0 
0 
0 
0 
0 
0 
3.716194367859997e-05 
3.344053633002239e-06 
1.67202681650112e-06 
0 
0 
0 
0 
0 
0 
0 
0 
0 
3.299094713348267e-05 
0 
0 
0 
0 
0 
0 
0 
1.481481427765106e-05 
0 
0 
0 
0 
0 
9.110450603817786e-05 
2.220365301015211e-05 
2.220365301015211e-05 
2.016676176080901e-05 
2.0166761760809e-05 
0 
0.0001113939012106995 
0 
0 
0 
0 
9.122713944989052e-05 
0 
0 
0 
0 
0 
0 
0 
0 
0 
0 
0 
0 
0 
0 
0 
0 
0 
0 
0 
0 
0 
0.007466407615922014 
0.007466407615922014 
0.007466407615922014 
0.007466407615922014 
0.007466407615922014 
1.419002542318532e-06 
0 
0 
0 
0 
0 
0 
0 
0 
0 
0.002227565021886843 
0 
0 
0.001423801003218193 
0 
0 
0 
0 
0 
0 
0 
0 
0 
0 
0 
0 
0 
0 
0 
0 
0 
0 
0 
0 
0 
0 
0 
0 
0 
0 
0 
0 
0 
0 
0 
0 
0.0004591937740294043 
0 
0 
0 
0 
0 
0 
0 
0.002345038744838276 
0 
0 
0 
0 
0 
0 
0 
0 
0 
0 
0 
0 
0 
0 
0 
0 
0 
0 
0 
0 
0 
0 
0 
0 
0 
0 
0 
0 
0 
0 
0 
0 
0 
0 
0 
0 
0 
0 
0 
0 
0 
0 
0 
0 
0 
0 
0 
0 
0 
0 
0 
0.01211000790490677 
0 
0 
0 
0 
0 
0.006203735234681476 
0 
0 
0 
0.001742333232119492 
0.001742333232119492 
0.001742333232119492 
0.001742333232119492 
0.001742333232119492 
4.522166125280434e-05 
4.522166125280434e-05 
4.522166125280434e-05 
4.522166125280434e-05 
0 
0 
0 
0 
0 
0 
0 
0 
0 
0 
0 
0 
0 
0 
0 
0 
0 
0 
0 
0 
0 
0 
0 
0 
0 
0 
0 
0 
0 
0 
0 
0 
0 
0 
0 
0 
0 
0.0008313131420008683 
0.0004983161844160069 
0.0004983161844160069 
0.0004983161844160069 
0.001465568226886121 
0.001465568226886121 
0.0004983161844160069 
0.001465568226886121 
0.001465568226886121 
0.001465568226886121 
0.01530085871382269 
0.001465568226886121 
0.001465568226886121 
0.01305463871573148 
0.001465568226886121 
0.002672746331068725 
0.002672746331068725 
0.002672746331068725 
0.002672746331068725 
0.002672746331068725 
0.002672746331068725 
0.002672746331068725 
0.002672746331068725 
0.002672746331068725 
0.002672746331068725 
0.002672746331068725 
0.002672746331068725 
0.002672746331068725 
0.002672746331068725 
0.0009672520424701142 
0.0009672520424701142 
0.0009672520424701142 
0.0009672520424701142 
0.0004767750072362305 
4.246311411813357e-05 
4.246311411813357e-05 
4.246311411813357e-05 
4.246311411813357e-05 
4.246311411813357e-05 
0.002677319537300673 
0.01341620665084459 
4.246311411813357e-05 
0.001083816357924615 
4.246311411813357e-05 
0.0006700701100967062 
0.008039742541453508 
4.246311411813357e-05 
0.001424930108580747 
0.001424930108580747 
0.001424930108580747 
0.001424930108580747 
0.001424930108580747 
0.001424930108580747 
0.001424930108580747 
0.001424930108580747 
0.003817657176046894 
0.001424930108580747 
0.0001315981015528456 
0.0001315981015528456 
0.0001315981015528456 
0.0001315981015528456 
0.0001315981015528456 
0.0001315981015528456 
0.0001315981015528456 
0.0001315981015528456 
0.0001315981015528456 
0.0001315981015528456 
0.0001315981015528456 
0.0002910692408724089 
0.0002910692408724089 
0.0002910692408724089 
0.001516698927713386 
0.0002910692408724089 
0.0002910692408724089 
0.0002910692408724089 
0 
0 
0 
7.016791299921486e-06 
0 
0 
0 
0 
0 
0 
1.472549637163169e-05 
0 
7.016791299921482e-06 
0 
0 
0.0001279075008240051 
0 
0 
0 
0 
0 
0 
0 
0 
0 
0 
0 
0 
0 
0 
0 
0 
0 
0 
0 
0 
0 
0 
0 
0 
0 
0 
0 
0 
0 
0 
0 
0 
0 
0.02519523800008724 
-2.168404344971009e-19 
-2.168404344971009e-19 
0 
0 
0 
0.01020643019444343 
0 
0 
1.067925041077191e-05 
0 
3.17949832759274e-05 
5.32260687868746e-05 
0 
0 
0 
0 
0 
0 
0 
0 
0 
0 
0 
0 
0 
0 
0 
0 
0 
0 
0 
0 
0 
0 
0 
1.139067331442427e-05 
0 
0 
0 
0 
0 
0 
0 
0 
0 
0 
0 
0 
0 
0 
0 
0 
0 
0 
0 
0 
0 
0 
0 
0 
0 
0 
0 
0 
0.002915056096664303 
0 
0 
0 
0 
0 
0.002915056096664303 
0 
0.002915056096664303 
0 
0.8320516099631895 
0 
0 
0 
0 
0 
0 
0 
0 
0 
0 
0 
0 
0 
0 
0 
0.001975962914669705 
0.01230395438099304 
0 
0 
0 
0 
0.01910984886060439 
0 
0.001975962914669705 
0.0384812583487471 
0 
0.001975962914669705 
0 
0.00018674900585691 
0.00018674900585691 
0.00018674900585691 
0.00018674900585691 
0.00018674900585691 
0.00018674900585691 
0.00018674900585691 
0.00018674900585691 
0.00018674900585691 
0.0004652903080760902 
0.00018674900585691 
0.00018674900585691 
0.0004652903080760902 
0.00018674900585691 
0.00018674900585691 
0.00018674900585691 
0.00018674900585691 
0 
0 
0 
0 
0 
0 
0 
0 
0 
0 
0 
0 
0 
0 
0 
9.826738242627102e-05 
9.826738242627102e-05 
9.826738242627102e-05 
9.826738242627102e-05 
9.826738242627102e-05 
9.826738242627102e-05 
9.826738242627102e-05 
9.826738242627102e-05 
9.826738242627102e-05 
1.577781260783713e-05 
0 
0 
0 
0 
0 
0 
0 
0 
0 
0 
0 
0 
0 
0 
0 
0 
0 
0 
0 
0 
0 
0 
0 
0 
0 
0 
0 
0 
0 
0 
0 
0 
0 
0 
0 
8.299683241606689e-05 
0 
0.000135311564132451 
0 
0 
0 
0 
0 
0 
0 
0 
0 
7.934395237072934e-06 
0 
0 
0 
0 
0.0005273579897767096 
0.0005273579897767096 
0.0005273579897767096 
0.0005273579897767096 
0.0005273579897767096 
0.0005273579897767096 
0 
0 
0 
0 
0 
0 
0 
0 
0 
0 
2.693134737342931e-05 
2.693134737342931e-05 
2.025506836999375e-05 
0 
0 
0 
0 
0 
0 
0 
0 
0 
0 
5.34102920117261e-05 
3.467444378521523e-05 
5.34102920117261e-05 
3.467444378521523e-05 
3.467444378521523e-05 
0 
8.446985166048964e-06 
0 
0 
0.0005288180062522813 
0.0005288180062522813 
0.0005288180062522813 
0.0005288180062522813 
0.0005288180062522813 
0.0005288180062522813 
6.712185475420907e-05 
0 
0 
0 
0 
0 
0 
0 
1.490911262882103e-05 
0 
5.101633801356028e-05 
0 
0 
0 
0 
0 
0 
0 
0 
0 
0 
0 
0 
0 
0 
0 
0 
0 
0 
0 
0 
0 
0 
0 
0 
0 
0 
0 
0 
0 
0 
0 
0 
0 
0 
0 
0 
0 
0 
0 
0 
0 
0 
0 
0 
0 
0 
0.0004197664798927237 
0 
0 
0.001049416199731809 
0.003544370344198368 
0 
0 
0 
0 
0 
0 
0 
0 
0 
0 
0 
0 
0 
0 
0 
0 
0 
0.0002098832399463618 
0.0002098832399463618 
0.0002098832399463618 
0.0002098832399463618 
0.0002098832399463618 
0.0002098832399463618 
0.0002098832399463618 
0.0002098832399463618 
0.0002098832399463618 
0.0002098832399463618 
0.0002098832399463618 
0.0002098832399463618 
0.0002098832399463618 
0.0002098832399463618 
0.0002098832399463618 
0.0002098832399463618 
0.0002098832399463618 
0.0002098832399463618 
0.0002098832399463618 
0.0002098832399463618 
0.0002098832399463618 
0.0002098832399463618 
0.0002098832399463618 
0.0002098832399463618 
0 
0 
0 
0.0006644320464351445 
0 
0 
0 
0 
0 
0 
0 
0 
0 
0 
0 
0 
0 
0 
0 
0.001638416002894203 
0 
0 
0.0005344089067877175 
0 
0 
0 
4.199441396006004e-06 
4.199441396006004e-06 
4.199441396006004e-06 
4.199441396006004e-06 
0 
0 
0.0003239218853486628 
0.0003239218853486628 
0 
0.0003239218853486628 
0.0003239218853486628 
0 
0 
0 
0 
0.0003239218853486628 
0.0003239218853486628 
0.0003239218853486628 
0.0003239218853486628 
0 
0 
0.0003239218853486628 
0.0003239218853486628 
0.0003239218853486628 
0.0003239218853486628 
0 
0 
0.0003239218853486628 
0.0003239218853486628 
0.0003239218853486628 
0.0003239218853486628 
0.0003239218853486628 
0.0003239218853486628 
0.0003239218853486628 
0.0003239218853486628 
0.0003239218853486628 
0.0003239218853486628 
0.0003239218853486628 
0.0003239218853486628 
0.0003239218853486628 
0.0003239218853486628 
0.0003239218853486628 
0.0003239218853486628 
0.0003239218853486628 
0.0003239218853486628 
0.0003239218853486628 
0.0003239218853486628 
0.0003239218853486628 
0.0009494233919643837 
0 
0 
0 
0 
0 
0 
0 
0 
0 
4.108956622784888e-05 
2.46339238172154e-05 
4.108956622784888e-05 
2.46339238172154e-05 
0 
0 
0 
0 
0 
0.0001619752629357237 
0 
0 
0.000123160857579202 
0.000123160857579202 
0.000123160857579202 
0.000123160857579202 
0.000123160857579202 
0.000123160857579202 
0.000123160857579202 
0.000123160857579202 
2.207697392302958e-05 
2.207697392302958e-05 
2.207697392302958e-05 
2.207697392302958e-05 
2.207697392302958e-05 
2.207697392302958e-05 
2.207697392302958e-05 
2.207697392302958e-05 
2.207697392302958e-05 
2.207697392302958e-05 
2.207697392302958e-05 
2.207697392302958e-05 
2.207697392302958e-05 
2.207697392302958e-05 
2.207697392302958e-05 
2.207697392302956e-05 
2.207697392302958e-05 
0.001251781255305369 
2.207697392302958e-05 
0.0001155229485882298 
2.207697392302958e-05 
0.001318111190112011 
2.207697392302958e-05 
0 
0 
0 
0 
0 
0 
0 
0 
0 
0 
0 
0 
9.188556873277446e-05 
9.188556873277446e-05 
9.188556873277446e-05 
9.188556873277446e-05 
9.188556873277446e-05 
0 
0 
0 
0 
0 
0 
0 
0 
0 
0 
0.0007886113403630839 
0.0002360432694017262 
2.576561790727011e-05 
0.001813300783278816 
0.0004389874321211611 
2.576561790727011e-05 
2.576561790727011e-05 
0 
0.0001503755530230709 
0.0001503755530230709 
0.0001503755530230709 
0.0001503755530230709 
0.0001056504389079272 
0.0001056504389079272 
0.0001056504389079272 
0.0001056504389079272 
0.0001056504389079272 
0.0001056504389079272 
0.0001056504389079272 
0.0001056504389079272 
0.0001058792951939359 
0.0001056504389079272 
0.000113787459608374 
0.0001056504389079272 
0 
0 
0 
0 
0 
0.0001381239160800675 
8.336490428465342e-05 
8.336490428465342e-05 
8.336490428465342e-05 
8.336490428465342e-05 
0 
0 
0 
0 
0 
0 
0 
0 
0.005858452948211078 
0 
0 
0 
0 
0 
0 
0 
0 
0 
0 
0 
0 
0 
0 
0 
0 
0 
0.01022789051185526 
0 
0 
0 
0.002722280678544501 
0 
0.0007692214589370172 
0.0007692214589370172 
0.0007692214589370172 
0.0007692214589370172 
0.0007692214589370172 
0.0007692214589370172 
0.0007692214589370172 
0.001538442917874034 
0.003511163280085436 
0.0007692214589370172 
0.0007692214589370172 
0 
0 
0 
0 
0 
0 
0 
0 
0 
0 
0 
0 
0 
0 
0 
0 
0 
0.0008256578326893089 
0 
0 
0 
0 
0 
0 
0 
0 
0 
0 
0.01429444037142169 
0 
0 
0 
0.006070808408052986 
0 
0.001719156195778668 
0.001719156195778668 
0.001719156195778668 
0.00418640486280847 
0.00377981928751427 
0.001719156195778668 
0.001719156195778668 
0.002684666146635112 
0.002684666146635112 
0.002684666146635112 
0.002684666146635112 
0.002684666146635112 
0.002684666146635112 
0.004623155963139804 
0 
0 
0.004712732474227143 
0 
0 
0 
0 
0 
0 
0 
0 
0 
0 
0 
0.0001510010379882792 
0 
0 
3.020020759765585e-05 
0 
3.020020759765585e-05 
0 
0 
0.0004297165646915577 
0 
3.020020759765585e-05 
2.617455753203248e-05 
2.617455753203248e-05 
2.617455753203248e-05 
2.617455753203248e-05 
2.617455753203248e-05 
2.617455753203248e-05 
2.617455753203248e-05 
0.0001077145021502015 
2.617455753203248e-05 
2.617455753203248e-05 
0.0001124191976260152 
2.617455753203248e-05 
0 
0 
0 
0 
0 
0 
0 
0 
0 
0 
0 
0.0005035820451796798 
0 
0 
0 
0 
0 
0.0005035820451796798 
0.001574118895145163 
0 
0 
0 
0 
0 
0 
0 
0 
0 
0 
0.0002150066719220119 
0 
0 
0 
0 
0 
0 
0.000186302191334315 
0 
0.000186302191334315 
0 
0 
0 
0 
0 
0 
0 
0 
0 
0 
0 
0 
0.0002312687326248637 
0 
0 
0 
0 
0 
0 
0 
0 
0 
0 
0 
0.002478452785561696 
0 
0 
0 
0 
0 
0 
0 
0 
0 
0 
0.008700063092129376 
0 
0 
0 
0.004548012452612611 
0 
0 
0 
0 
0 
0 
0 
0 
0 
0 
0 
0.001372625964487386 
0 
0 
0 
0 
0 
0.000673114829289249 
0.005299706027797163 
0 
4.126696029246388e-05 
4.126696029246388e-05 
4.126696029246388e-05 
4.126696029246388e-05 
4.126696029246388e-05 
4.126696029246388e-05 
4.126696029246388e-05 
4.126696029246388e-05 
4.126696029246388e-05 
8.253392058492776e-05 
0.007340965489586225 
4.126696029246388e-05 
4.126696029246388e-05 
4.126696029246388e-05 
0.00197082617766728 
4.126696029246388e-05 
0.0006431553727920869 
0.0006431553727920869 
0.0006431553727920869 
0.0006431553727920869 
0.0006431553727920869 
0.0006431553727920869 
0.0006431553727920869 
0.0006431553727920869 
0.0006431553727920869 
0.0006431553727920869 
0.0006431553727920869 
0.0006431553727920869 
7.524506959488121e-05 
7.524506959488121e-05 
7.524506959488121e-05 
7.524506959488121e-05 
7.524506959488121e-05 
7.524506959488121e-05 
7.524506959488121e-05 
9.428105964330092e-05 
7.524506959488121e-05 
0.00707186765682882 
0.0007915747380143226 
0.0007915747380143226 
0 
0 
0 
0 
0 
0 
0 
0 
0 
0 
0 
0 
0.0004816116642274212 
0 
0 
0 
0 
0 
0 
0 
0 
0 
0 
0 
0 
0 
0 
0 
0 
0 
0 
0 
0 
0 
0 
0 
0 
0 
0 
0 
0 
0 
0 
0 
0 
0 
0 
0 
0 
0 
0 
0 
0 
0 
0 
0 
0 
0 
0 
0 
0 
0 
0 
0 
0 
0 
0 
0 
0 
0 
0 
0.001825304110322638 
0 
0 
0 
0 
0 
0 
0 
0 
0.002181815929493434 
0 
0 
0.001124554402643188 
0 
0 
0 
0 
0.006145347775736117 
0 
0 
0 
0 
0 
0.0005098691542193433 
0 
0 
0 
0 
0.0002615606275383128 
0 
0 
0 
0 
0 
0 
0 
0.001433957083745011 
0 
0.003506598918296441 
0 
0.008790585029602461 
0 
0.00905214565714077 
0 
0.001914453949418521 
0.001914453949418521 
0.001914453949418521 
0.001914453949418521 
0.001914453949418521 
0.001914453949418521 
0.001914453949418521 
0.001914453949418521 
0.001914453949418521 
0.001914453949418521 
0.001914453949418521 
0.001914453949418521 
0.001914453949418521 
0.003828907898837042 
0.001914453949418521 
0.001914453949418521 
0.001914453949418521 
0.001914453949418521 
0.001914453949418521 
0.001914453949418521 
0.001914453949418521 
0.001914453949418521 
0 
0 
0 
0.07465923277888858 
0.01432901902164239 
0 
0 
0 
0 
0 
0 
0 
0 
0.001433957083745008 
0 
0 
0.003588468400022691 
0 
0 
0 
0 
0 
0 
0 
0.005762578885111951 
0 
0.004587702161611738 
0.004587702161611738 
0.004587702161611738 
0.005277675212857712 
0.004587702161611738 
0.004587702161611738 
0.004587702161611738 
0 
0 
0 
0 
0 
0 
0 
0 
0 
0 
0 
0 
0 
0.004768625664922882 
0 
0 
0 
0 
0 
0 
0 
0 
0 
0 
0 
0.001527610870807332 
0.001527610870807332 
0.001527610870807332 
0.001527610870807332 
0.001527610870807332 
0.001527610870807332 
0.001527610870807332 
0.001527610870807332 
0.001527610870807332 
0.001527610870807332 
0.004582832612421998 
0.001527610870807332 
0.001527610870807332 
0.001527610870807332 
0.001527610870807332 
0.001527610870807332 
0.001527610870807332 
0.001527610870807332 
0.001527610870807332 
0 
0 
0 
0 
0 
7.723785905060796e-05 
0.01946278657966852 
0.01946278657966852 
0.01946278657966852 
0.01946278657966852 
0.01946278657966852 
0.01946278657966852 
0.01938682131780904 
0.01938682131780904 
0.01938682131780904 
0.01938682131780904 
0.01938682131780904 
0.01938682131780904 
0.002427883313704324 
0.002427883313704324 
0.002427883313704324 
0.002427883313704324 
0.002427883313704324 
3.169127823811162e-05 
3.281212917211966e-06 
3.169127823811162e-05 
3.281212917211966e-06 
3.281212917211966e-06 
6.64100437350942e-05 
6.64100437350942e-05 
6.64100437350942e-05 
6.64100437350942e-05 
0.0001023845374976861 
1.309707877027133e-05 
1.309707877027133e-05 
1.309707877027133e-05 
0.0001023845374976861 
1.38285254656351e-06 
1.38285254656351e-06 
8.790460618085125e-05 
8.790460618085125e-05 
8.790460618085125e-05 
8.790460618085125e-05 
0.0001508863732545725 
0.0001508863732545725 
0.0001508863732545725 
0.0001508863732545725 
0.0001508863732545725 
0.0001508863732545725 
0.0001508863732545725 
0.0001508863732545725 
0.0003017727465091449 
0.0001508863732545725 
0.0001508863732545725 
0.0001508863732545725 
0.0001508863732545725 
0.0001508863732545725 
0.03116189284649436 
0.0001508863732545725 
0.0004526591197637178 
0.01261872649227249 
0.0001508863732545725 
0.0003017727465091449 
0.0003017727465091449 
0.0001508863732545725 
0.0001508863732545725 
0.0001508863732545725 
0.0001508863732545725 
0.0001508863732545725 
0.0001508863732545725 
0 
0 
0 
0 
0 
0 
0 
0 
0 
0 
0 
0 
0 
0.01920010441579215 
0 
0 
0 
0 
0 
0 
0.008430585018746117 
0 
0 
0.01945508884173105 
0.01945508884173105 
0.01945508884173105 
0.01945508884173105 
0.01945508884173105 
0.01945508884173105 
0 
0 
0 
0 
0 
0 
0 
0 
0 
0 
0 
0 
0 
0 
0 
0 
0 
0 
0 
0 
0 
6.415497758809917e-05 
0 
0 
8.298439821054554e-06 
8.298439821054554e-06 
8.298439821054554e-06 
8.298439821054554e-06 
8.298439821054554e-06 
6.445018071389504e-06 
0 
0 
0 
0 
0 
0 
0 
0.0006911650946523175 
0 
0 
0.0001557213915474315 
0.0003316615154007232 
2.688146929711924e-05 
2.688146929711924e-05 
2.688146929711924e-05 
2.688146929711924e-05 
2.688146929711924e-05 
2.688146929711924e-05 
6.057119303349211e-05 
3.163015484887134e-05 
0 
0 
0 
0 
0 
0 
0 
0 
0 
0 
0 
0 
0 
0.005979653105848338 
0.005979653105848338 
0.005979653105848338 
0.005979653105848338 
0.005979653105848338 
0.005979653105848338 
0.005979653105848338 
0.0008328776279739167 
0.0008328776279739167 
0.0008328776279739167 
0.0008328776279739167 
0.752386664252545 
0.1405264383023037 
0.02470552379408472 
0.009743692858433482 
0.009743692858433482 
0.009743692858433482 
0.009743692858433482 
0.009743692858433482 
0.009743692858433482 
0.009743692858433482 
0.009743692858433482 
0.003746919708923695 
0.003746919708923695 
0.003746919708923695 
0.003746919708923695 
0.003746919708923695 
0.003746919708923695 
0.003746919708923695 
0.003746919708923695 
0.009250584175216518 
0.003746919708923695 
0 
0 
0 
0 
0 
0 
0 
0 
0.005239695162155125 
0 
0 
0.0004196977187158565 
0 
0.0001735934409631576 
0.0001735934409631576 
0.0001735934409631576 
0.0001735934409631576 
0.0001735934409631576 
0.0001735934409631576 
0.0001735934409631576 
0.0001735934409631576 
0.0003471868819263151 
0.0001735934409631576 
0.0001735934409631576 
0.0001735934409631576 
0.0001735934409631576 
0.0001735934409631576 
0.0001735934409631576 
1.751196411162893e-05 
1.751196411162893e-05 
8.755982055814465e-06 
0 
0 
0 
0 
0 
0 
0 
0.002367735854187901 
0 
0 
0 
0.006912414409606147 
8.548993089257626e-06 
8.548993089257626e-06 
0.006912414409606147 
8.548993089257626e-06 
8.548993089257626e-06 
1.709798617851525e-05 
8.548993089257626e-06 
1.709798617851525e-05 
8.548993089257626e-06 
8.548993089257626e-06 
8.548993089257626e-06 
0.007243005970315242 
0.0008660070636217548 
0.0008660070636217548 
0.008341362210020572 
0.0008660070636217548 
0.0008660070636217548 
0.0008660070636217548 
0.0008660070636217548 
0.0008660070636217548 
0.0008660070636217548 
0.0008660070636217548 
0 
0 
0 
0 
0 
0 
0.000860886324234684 
0.000860886324234684 
0.000860886324234684 
0.000860886324234684 
0.000860886324234684 
0.000860886324234684 
0.000860886324234684 
0.001721772648469368 
0.000860886324234684 
0.000860886324234684 
0.0004553168525260291 
0.0004553168525260291 
0.0004553168525260291 
0.0004553168525260291 
0.0004553168525260291 
0.0004553168525260291 
0.0004553168525260291 
0.0004545833469256366 
0.0004545833469256366 
0.0004545833469256366 
0.0004545833469256366 
0.0004545833469256366 
0.0004545833469256366 
0.0004545833469256366 
0 
0 
0 
3.776224895305404e-05 
3.776224895305404e-05 
3.776224895305404e-05 
3.776224895305404e-05 
3.776224895305404e-05 
0.001265969571755654 
0.001265969571755654 
0.001265969571755654 
0.001265969571755654 
0.001265969571755654 
0.001265969571755654 
0.001265969571755654 
0.001265969571755654 
0.005756246407439594 
0.001265969571755654 
0 
0 
0 
0 
0 
0 
0 
0 
0 
0 
0 
0 
0 
0 
0 
0 
0.000203756050205876 
0.000203756050205876 
0.000203756050205876 
0.000203756050205876 
0.000203756050205876 
0.000203756050205876 
0.000203756050205876 
0.000203756050205876 
0.000203756050205876 
0.000203756050205876 
0.000203756050205876 
0.003309801952340984 
0.000203756050205876 
0.006074118604348058 
0 
0 
0.02564198036874486 
0 
0 
0 
0 
0 
0 
0 
0 
0.000415541464095141 
7.421614986581516e-05 
0 
0.000415541464095141 
0 
0 
0 
0 
0 
0 
0 
0.0005523784759051495 
0.01828374359833232 
0 
0 
0.0005523784759051495 
0.009167920369009236 
0 
0 
0 
0 
0 
0 
0 
0 
0 
0 
0 
0 
0 
0 
0 
0 
0 
0 
0.001226077881344356 
0 
0 
0 
0 
0 
0 
0 
0 
0 
0 
0 
0 
0 
0 
0 
0.0009692571432907031 
0 
0 
0.001057015024089955 
0 
0 
0 
0 
0 
0 
0 
0 
0 
3.61910225012872e-05 
3.61910225012872e-05 
0 
3.61910225012872e-05 
2.770428458080214e-05 
0 
0 
0.0001477932450772263 
0 
0 
0 
0 
0 
0 
0 
0 
0 
0 
0 
0 
0 
0 
0 
0 
0 
0 
0 
0 
0 
0 
0 
0 
0 
0 
0 
1.830023744344025e-05 
0 
0 
0 
0 
0 
0 
0 
0 
0 
0 
0 
0 
0 
0 
0 
0 
0 
0 
0 
0 
0 
0 
0 
0 
0 
0 
0 
0 
0 
0 
0 
0 
0 
0 
0 
0 
0 
0 
0 
0 
6.725315215949272e-06 
0 
0 
0 
0 
0 
0 
0 
0 
0 
0.001406923639550476 
0.001406923639550476 
0.001406923639550476 
0.001406923639550476 
0.001406923639550476 
0.001406923639550476 
0.001406923639550476 
0.001406923639550476 
0.004208800154912604 
0.001406923639550476 
0 
0 
0 
0 
0 
0 
0 
0 
0 
0 
0 
0 
0 
0 
0 
0 
0 
0 
0 
0 
0 
0 
0 
0 
0 
5.894811200283498e-05 
0 
0 
0.0005242899653608851 
0.0005242899653608851 
0.0005242899653608851 
0.0005242899653608851 
0.0005242899653608851 
0.0005242899653608851 
0.002070954382539955 
0.002070954382539955 
0.002070954382539955 
0.005908117979141993 
0.002070954382539955 
0.002070954382539955 
0.0005614637989873218 
0.0002817934968010111 
0.0002817934968010111 
0.0002817934968010111 
0.0002817934968010111 
0.0005249809963639073 
0.0005249809963639073 
0.0005249809963639073 
0.0005249809963639073 
0.0005249809963639073 
0.0005249809963639073 
0.0003651435024037673 
0.0003651435024037673 
0.0003651435024037673 
0.0003651435024037673 
0.0003651435024037673 
0 
0 
0 
0 
0 
0 
0 
0 
0 
0 
0 
0 
0 
0 
0 
0 
0 
0 
0 
0 
0 
0 
0 
0 
0 
0 
0 
0 
0 
0 
0 
0 
0 
0 
0 
0 
0 
0 
0 
0 
0 
0 
0 
0 
0 
0 
0 
0 
0 
0 
0 
0 
0 
0 
0 
0 
0 
0 
0.002033594387440118 
0 
0.001757048127542942 
0 
0 
0 
0 
0 
-4.743384504624082e-20 
0 
0.0002765462598971755 
0 
0 
0 
0 
0 
0 
0 
0 
0 
6.192507908389406e-05 
0 
0.0006635168453493695 
0 
0.0004917088469338397 
6.192507908389406e-05 
0 
0 
0 
0 
0 
0 
0 
0 
0 
0 
0 
0 
0 
0 
0 
0 
0 
0 
0.001816910085686612 
0.001699684159606566 
0.001699684159606566 
0.001699684159606566 
0.001699684159606566 
0.0004990779644385289 
0.0004990779644385289 
0.0004990779644385289 
0.0004990779644385289 
0.0004990779644385289 
0.0004990779644385289 
0.0004990779644385289 
0.0004990779644385289 
0.0004990779644385289 
0.0004990779644385289 
0.0004990779644385289 
0.0007888473617108516 
0.0004990779644385289 
0.0007888473617108516 
0.0004990779644385289 
0.001577694723421703 
0.0004990779644385289 
0.0004990779644385289 
0 
0 
0 
0 
0 
0 
0 
0 
0 
0.01975037915336499 
0.005270066570796797 
0.002969380311313163 
0 
0 
0 
0 
0 
0 
0 
0 
0 
0.0002640286292930394 
0 
0 
0 
0.001895034331068203 
0.003040412925215235 
0 
0.0006610146247219609 
0.002085614978875277 
8.80095430976798e-05 
0.0006610146247219609 
0 
0.001983043874165883 
0.004156036827037309 
0.0002640286292930395 
0.0002640286292930394 
0 
0 
0.000661014624721961 
0 
0 
0 
0 
0 
0 
0 
0 
0 
0 
0 
0 
0 
0.01361946984862994 
0 
0 
0 
0 
0 
0 
0 
0 
0 
0.00680973492431497 
0 
0 
0.01203273784464241 
0 
8.650617911177375e-05 
0 
0 
0 
0 
0 
0 
0 
0 
0 
0 
0 
0 
0 
0 
0 
0 
0 
0 
0 
0 
0 
0 
0 
0 
0 
0 
0 
0.0001759976426000324 
0.0001759976426000324 
0.0001759976426000324 
0.0001759976426000324 
0.0001759976426000324 
0.0001759976426000324 
0.0001759976426000324 
0.0001759976426000324 
0.0001759976426000324 
0 
0 
0 
0 
0.000623566451884179 
0 
0 
0 
0 
0 
0 
0 
0 
0 
0 
0 
0 
0 
0 
0 
0 
0 
0 
0 
0 
0.000623566451884179 
0.000623566451884179 
0 
0.000623566451884179 
0 
0 
0 
0 
0 
0 
4.889993717090609e-06 
4.889993717090609e-06 
4.889993717090609e-06 
4.889993717090609e-06 
4.889993717090609e-06 
0.0001472691739980869 
0.0001472691739980869 
0.0001472691739980869 
0.0001472691739980869 
0.0001472691739980869 
0.0001472691739980869 
0.0001472691739980869 
0.0005893528358263177 
0.0001472691739980869 
0.0001472691739980869 
0.0001472691739980869 
0.0001472691739980869 
0.0001472691739980869 
1.033951483860457e-05 
0 
0 
0 
0 
0 
0 
0 
0 
0 
0 
0 
0 
0 
0 
0 
0 
0 
0 
0.0008860525308257111 
0 
0 
0 
0 
8.360965553944871e-05 
0 
0 
0 
0 
0 
0 
0 
0 
0 
0 
0 
0 
0 
0 
0 
0 
0 
0 
0 
0 
0 
0 
0 
0 
9.875606084884433e-05 
0 
0 
0 
0 
0 
0 
0 
5.433468817009523e-05 
0 
0 
4.973047780534238e-05 
0 
0 
0 
0.01166774402637812 
0 
0 
0.01857684040499073 
0 
0 
0 
0 
0 
0 
0 
0 
0 
0 
0 
0 
0 
0 
0 
0 
0 
0 
0 
0 
0 
0 
0 
0 
0 
0 
0.002086901469646307 
0 
0 
0.002240660656393442 
0 
0 
0 
0 
0 
0 
0.0001684132401498641 
0.0001684132401498641 
0.0001684132401498641 
0.0001684132401498641 
0.0001684132401498641 
0.0002772996215116582 
0.0002772996215116582 
0.0002772996215116582 
0.001662803184765774 
0.0002772996215116582 
0.0002772996215116582 
0.0002772996215116582 
0 
0 
0 
0 
0 
0 
0 
0 
0 
0 
0 
3.533975234573689e-05 
3.533975234573689e-05 
3.533975234573689e-05 
0.004641186586642107 
0.004641186586642107 
0.004641186586642107 
0.004641186586642107 
0.004641186586642107 
0.004641186586642107 
0.004641186586642107 
0 
0 
0 
0 
0 
0 
0 
0 
0 
0 
6.230021860372195e-05 
0.0009970130185782368 
0.0009970130185782368 
0.0009970130185782368 
0.0009970130185782368 
0.0009970130185782368 
0.0009970130185782368 
0.0009970130185782368 
0.0009970130185782368 
0.008019175508530584 
0.0009970130185782368 
0 
0 
0 
0.0007962973062024474 
0 
0 
0 
0 
0 
0 
0 
0 
0 
3.031861687620474e-05 
0 
0 
0 
0 
0 
3.296908329065941e-06 
3.296908329065941e-06 
3.296908329065941e-06 
3.296908329065941e-06 
3.296908329065941e-06 
3.296908329065941e-06 
0.0001074609463306326 
0.0001074609463306326 
0.0001074609463306326 
0.000207774527110412 
0.0001074609463306326 
0.0001074609463306326 
0.0001074609463306326 
0.0001074609463306326 
0.0001074609463306326 
0 
0 
0 
0 
0 
0 
0 
0 
0 
0 
0 
0 
0 
0 
0 
0 
6.902348643973839e-05 
0 
8.383830071738946e-05 
9.122713944989052e-05 
0 
0 
0 
0 
0 
0 
0 
0 
0 
1.427151612132272e-05 
0 
0 
0 
0 
0 
6.788830004308761e-05 
6.788830004308761e-05 
6.788830004308761e-05 
6.788830004308761e-05 
6.788830004308761e-05 
6.788830004308761e-05 
6.788830004308761e-05 
6.788830004308761e-05 
6.788830004308761e-05 
0 
0 
0 
6.956681854530799e-06 
6.956681854530799e-06 
6.956681854530799e-06 
6.956681854530799e-06 
6.956681854530799e-06 
0.0002658991714002296 
0.0001247869105934684 
0.0001247869105934684 
0.0001247869105934684 
0.0001247869105934684 
0.0001247869105934684 
0 
0 
0 
0 
4.788361772324457e-06 
4.788361772324457e-06 
4.788361772324457e-06 
4.788361772324457e-06 
4.788361772324457e-06 
6.188366701037291e-07 
6.188366701037291e-07 
6.188366701037291e-07 
6.188366701037291e-07 
0 
0 
0 
0 
0 
0 
0 
0 
0 
0 
0 
0 
0 
0 
0 
0 
0 
0 
0 
6.776263578034403e-21 
0 
0 
0 
0 
0 
0 
0 
0 
0 
0 
0 
0 
0 
0 
0 
0 
0 
0.0004555767285698874 
0.0004555767285698874 
0.0004555767285698874 
0.0004555767285698874 
0.0004555767285698874 
0.0004555767285698874 
0.0004555767285698874 
0.0004039263389479826 
0.0004039263389479826 
0.0004039263389479826 
0.0008043738108135068 
0.0004039263389479826 
0.0004039263389479826 
0.0004039263389479826 
0.0004499879627069352 
0.0004499879627069352 
0.0004499879627069352 
0.0004499879627069352 
0.0004499879627069352 
0.0004499879627069352 
0.0004499879627069352 
3.738834087702363e-06 
3.738834087702363e-06 
3.738834087702363e-06 
3.738834087702363e-06 
3.738834087702363e-06 
3.738834087702363e-06 
0 
0 
0 
0 
0 
0 
0 
0 
0 
0 
0 
0 
0 
0.0001701136833035814 
0 
7.646647707134137e-06 
7.646647707134137e-06 
3.823323853567069e-06 
0.0004606977362413247 
0.0004606977362413247 
0.0004606977362413247 
0.0004606977362413247 
0.0004606977362413247 
0.0004606977362413247 
0.0004606977362413247 
0.0004588910323640691 
0.0004588910323640691 
0.0004588910323640691 
0.0004588910323640691 
0.0004588910323640691 
0.0004588910323640691 
0.0004588910323640691 
9.419667985752386e-07 
9.419667985752386e-07 
9.419667985752386e-07 
9.419667985752386e-07 
9.419667985752386e-07 
9.419667985752386e-07 
0 
0 
0.0004526729896990321 
0.0004526729896990321 
0.0004526729896990321 
0.0004526729896990321 
0.0004526729896990321 
0.0004526729896990321 
0.0004526729896990321 
0.0004601165398743649 
0.0004601165398743649 
0.0004601165398743649 
0.0004601165398743649 
0.0004601165398743649 
0.0004601165398743649 
0.0004601165398743649 
6.990070840729935e-05 
6.990070840729935e-05 
6.990070840729935e-05 
6.990070840729935e-05 
6.990070840729935e-05 
6.990070840729935e-05 
6.990070840729935e-05 
0.0002569982361675574 
6.990070840729935e-05 
0.0002191592147665426 
6.990070840729935e-05 
0 
0 
0 
0.001019120363503029 
0 
0 
0 
0 
0 
0 
0 
0 
0 
0 
0 
0.0004590473438367494 
0.0004590473438367494 
0.0004590473438367494 
0.0004590473438367494 
0.0004590473438367494 
0.0004590473438367494 
0.0004590473438367494 
0.0004543722893035233 
0.0004543722893035233 
0.0004543722893035233 
0.0004543722893035233 
0.0004543722893035233 
0.0004543722893035233 
0.0004543722893035233 
7.853712598368152e-05 
7.853712598368152e-05 
7.853712598368152e-05 
8.206956960177092e-05 
7.853712598368152e-05 
7.853712598368152e-05 
7.853712598368152e-05 
0.0001800785237929027 
7.853712598368152e-05 
0.0004070006831318252 
0.0004070006831318252 
0.0004070006831318252 
0.0008066361178640022 
0.0004070006831318252 
0.0004070006831318252 
0.0004070006831318252 
0 
7.779107373149151e-07 
0 
0 
0 
0 
0 
0.0006062468689456068 
0 
7.571254805021212e-05 
7.571254805021212e-05 
7.571254805021212e-05 
7.571254805021212e-05 
7.571254805021212e-05 
7.571254805021212e-05 
7.571254805021212e-05 
7.571254805021212e-05 
7.571254805021212e-05 
0.006054763739071469 
0.006054763739071469 
0.006054763739071469 
0.006054763739071469 
0.006054763739071469 
0.006054763739071469 
0.006054763739071469 
0.005934168827569632 
0.005934168827569632 
0.005934168827569632 
0.005934168827569632 
0.005934168827569632 
0.005934168827569632 
0.005934168827569632 
0 
0 
0 
0 
0 
0 
0 
0 
0 
9.397461530429974e-06 
0.0005290004347479749 
0.0005290004347479749 
0.0005290004347479749 
0.0005290004347479749 
0.0005290004347479749 
0.0005290004347479749 
0 
0 
0 
0 
0 
0 
0 
0 
0 
0 
0 
0 
0 
6.581741085091676e-05 
0 
0 
0 
0 
0 
0 
0 
0 
0 
0 
0 
0 
0 
0 
0 
0 
0 
0 
0 
0 
0 
0 
0 
-5.421010862427522e-20 
0 
-1.084202172485504e-19 
0 
0 
0 
0 
0 
0 
0 
0 
0 
0 
0 
0 
0 
0 
0 
0 
0 
0 
0 
0 
0 
0 
0 
0 
0 
0 
0 
0 
0 
0 
0 
0 
0 
0 
0 
0 
0 
0 
0 
0 
0 
0 
9.659641530401082e-05 
9.659641530401082e-05 
9.659641530401082e-05 
9.659641530401082e-05 
9.659641530401082e-05 
9.659641530401082e-05 
9.659641530401082e-05 
9.659641530401082e-05 
9.659641530401082e-05 
0 
9.187678667684532e-06 
0 
9.187678667684532e-06 
0 
0 
0 
0 
0 
0 
0 
0 
0 
0 
0 
0 
0 
0 
0 
0 
0 
0 
0 
0.002619847581077563 
0.002619847581077563 
0.002619847581077563 
0.002619847581077563 
0.002619847581077563 
0.002619847581077563 
0.002619847581077563 
0.005239695162155125 
0.002619847581077563 
0.002619847581077563 
0.02586179806985172 
0.02586179806985172 
0.02586179806985172 
0.02586179806985172 
0.02586179806985172 
0.02586179806985172 
0 
0 
0 
0 
0 
0 
0 
0 
0 
0 
0 
0 
0 
0 
0 
0 
0 
0 
0 
0.002646620756985509 
0 
0 
0 
0 
0 
0 
0 
0 
0 
0 
0 
0 
3.557901645299705e-05 
3.557901645299705e-05 
3.557901645299705e-05 
0.0004589846789275219 
7.978765498074798e-05 
3.557901645299705e-05 
3.557901645299705e-05 
0.0002662969574796058 
3.557901645299705e-05 
0.0004551972734687717 
0.0004551972734687717 
0.0004551972734687717 
0.0004551972734687717 
0.0004551972734687717 
0.0004551972734687717 
0.0004551972734687717 
0.01383420989903627 
0 
0 
0 
0 
0 
0 
0 
0 
0 
4.19806667640342e-05 
0.003907462359740808 
0 
0.0001660833189997056 
3.794707603699266e-19 
3.794707603699266e-19 
0.003907462359740805 
0 
0.002384795393902173 
0 
0.001192397696951086 
0 
0 
0 
0 
0 
0 
0 
0 
0 
0 
0 
0 
0 
0 
0 
0 
0.0008007913589466422 
0 
0 
0 
0 
0 
0 
0 
0 
0 
0 
0 
0 
0 
0 
0 
0 
0 
0 
0 
0 
0 
0 
0 
0 
0 
0 
0 
0 
0 
0 
0 
0 
0 
0 
0 
0.000129095043628446 
0 
0 
0.0002167522963772781 
0 
0 
0 
0 
0 
0 
0 
0 
0 
0 
0 
0 
0 
0 
7.867850802371583e-06 
0 
0.0005342102936766914 
0.0005342102936766914 
0.0005342102936766914 
0.0005342102936766914 
0.0005342102936766914 
0.0005342102936766914 
4.276581480841853e-05 
4.276581480841853e-05 
4.276581480841853e-05 
0.0005908991905425617 
4.276581480841853e-05 
4.276581480841853e-05 
4.276581480841851e-05 
0.0008419321260737877 
0.001519157735029827 
6.828862052224216e-05 
0.0005258943790968242 
0.0005258943790968242 
0.0005258943790968242 
0.0005258943790968242 
0.0005258943790968242 
0.0005258943790968242 
7.982399444639167e-05 
0 
0 
0.0001260778874037778 
0 
0.0004540797424493653 
0.0004540797424493653 
0.0004540797424493653 
0.0004540797424493653 
0.0004540797424493653 
0.0004540797424493653 
0.0004540797424493653 
0.0001577966807611212 
0 
0 
0 
0 
0 
0.0001362093557805547 
0 
0 
0 
0 
0 
0 
0 
0 
0 
0 
0 
0.001655674228114352 
0 
0 
0.001655674228114353 
0 
0 
0 
0 
0.005541628300688228 
0 
0 
0 
0 
0 
0.005346252111251181 
0.005346252111251181 
0.005346252111251181 
0.005346252111251181 
0.005346252111251181 
0.005346252111251181 
2.601003225134326e-05 
1.716763307794184e-05 
0 
0 
0 
0 
0 
0 
0 
0 
0 
0 
0 
0.001419305370175053 
0.001419305370175053 
2.94725359846568e-05 
0 
0 
0 
0 
0 
0 
0 
0 
0 
0 
0 
0 
0 
0 
0 
0 
0 
0 
0 
0 
0 
0 
0 
0 
0 
0 
0 
0 
0 
0 
0 
0 
0 
0.0002952861821624676 
0 
0 
0.0004327759195574011 
0 
0 
0 
0 
0 
0 
0 
0 
0 
0 
0 
0 
0 
0 
0 
0 
0 
0.003291328487768878 
0.003291328487768878 
0.003291328487768878 
0.003291328487768878 
0.003291328487768878 
0.003291328487768878 
0.003291328487768878 
0.003291328487768878 
0.003291328487768878 
0.003291328487768878 
0 
0 
0 
0 
0 
0 
0 
0 
0 
0 
0 
0 
0 
0 
0 
0 
0 
0 
0 
0 
0 
0 
0 
0 
0 
0 
0 
0 
0 
0 
0 
0 
0 
0 
0 
0 
0 
0 
0 
0.0001900168811571559 
0 
0.0001900168811571559 
0 
0 
0 
0.003019366176579526 
0.00260772206452721 
0.00260772206452721 
0.003019366176579526 
0.00260772206452721 
0.00260772206452721 
0 
0 
0 
0 
0 
0 
0 
0 
0 
0 
0 
0 
0 
0 
0 
0 
0 
0.0002554390980693732 
0 
0 
0.0002554390980693732 
0 
0 
0 
0 
0 
0 
0 
0.001014616865855251 
0.001014616865855251 
0.001014616865855251 
0.001014616865855251 
0.001014616865855251 
0.001440976328854804 
0.001440976328854804 
0.001440976328854804 
0.001440976328854804 
0.001440976328854804 
0.001440976328854804 
0.001440976328854804 
0.001440976328854804 
0.001440976328854804 
0.001440976328854804 
0.001440976328854804 
0.001440976328854804 
0.001440976328854804 
0.001440976328854804 
0.001440976328854804 
0 
0 
0 
0 
4.128379518847392e-05 
0 
0 
0 
0 
0 
0 
0 
0 
0 
0 
0 
0 
0 
0 
0 
0 
0 
0 
0 
0 
0 
0 
0 
0 
0 
0 
0 
0 
0 
0 
0 
0 
0 
0 
0 
0 
7.82114546358493e-05 
7.82114546358493e-05 
7.82114546358493e-05 
0.0001867229527813605 
7.82114546358493e-05 
7.82114546358493e-05 
7.82114546358493e-05 
0.0002243528334906048 
7.82114546358493e-05 
0.0002243528334906048 
7.82114546358493e-05 
0.0001905576134485661 
7.82114546358493e-05 
0.0004549102485417203 
0.0004549102485417203 
0.0004549102485417203 
0.0004549102485417203 
0.0004549102485417203 
0.0004549102485417203 
0.0004549102485417203 
0.0004509839786766895 
0.0004509839786766895 
0.0004509839786766895 
0.0004509839786766895 
0.0004509839786766895 
0.0004509839786766895 
0.0004509839786766895 
0.0001990102626572008 
0 
0 
0.0001990102626572008 
0 
0 
2.204853825337778e-05 
0.0005037484884917145 
0.000131840842983024 
0.000131840842983024 
0.000131840842983024 
0.000131840842983024 
0.000131840842983024 
0.000131840842983024 
0.000131840842983024 
0.000261264692364484 
0.000131840842983024 
0.000458505624294496 
0.000458505624294496 
0.000458505624294496 
0.000458505624294496 
0.000458505624294496 
0.000458505624294496 
0.000458505624294496 
0 
0 
0 
0 
0 
0 
0.000856757423463363 
0.009393186167872372 
0 
0 
0 
0 
0.004649458185862683 
0 
0 
0 
0 
0 
0 
0 
0 
0 
0 
0 
0 
0 
0 
0 
0 
0 
0 
0 
0.001280458816301886 
0 
0 
0 
0 
0 
0.004122644773824473 
0 
0 
0.004122644773824473 
0 
0 
0 
0 
0 
0.006309515835637465 
0.004135107794755227 
0.004135107794755227 
0.01152567061908091 
0.001138568129807453 
0.001138568129807453 
0.01152567061908091 
0.001138568129807453 
0.001138568129807453 
0.001138568129807453 
0.001138568129807453 
0.001138568129807453 
0.001138568129807453 
0.001138568129807453 
0.001138568129807453 
0.001138568129807453 
0.002277136259614905 
0.02003151480989707 
0.001138568129807453 
0.001138568129807453 
0.001138568129807453 
0.001138568129807453 
0.001138568129807453 
0.001138568129807453 
0.001138568129807453 
0.01331483888422061 
0.001138568129807453 
0.001138568129807453 
0.001138568129807453 
0.001138568129807453 
0.006279344865900191 
0.001138568129807453 
0 
0 
0 
0 
0 
0 
0 
0 
0.01944758461321019 
0.01944758461321019 
0.01944758461321019 
0.01944758461321019 
0.01944758461321019 
0.01944758461321019 
0.0003554656526693173 
0.0003554656526693173 
0.0003554656526693173 
0.0003554656526693173 
0.0003554656526693173 
0.004657315539049954 
0.004657315539049954 
0.004657315539049954 
0.004657315539049954 
0.004657315539049954 
0.004657315539049954 
0.0007801233384877603 
0.0007801233384877603 
0.0007801233384877603 
0.0007801233384877603 
0.0007801233384877603 
0.0007801233384877603 
0.0007801233384877603 
0.001560246676975521 
0.0007801233384877603 
0.0007801233384877603 
0 
0 
0 
0 
0 
0 
0 
0 
0 
0 
0 
0 
0 
0 
0 
0 
0 
0 
0 
0 
0 
0 
8.777766649064244e-05 
8.777766649064244e-05 
8.777766649064244e-05 
8.777766649064244e-05 
8.777766649064244e-05 
8.777766649064244e-05 
8.777766649064244e-05 
8.777766649064244e-05 
8.777766649064244e-05 
8.777766649064244e-05 
8.777766649064244e-05 
8.777766649064244e-05 
0.0002633329994719271 
0.0002633329994719271 
8.777766649064244e-05 
8.777766649064244e-05 
8.777766649064244e-05 
0 
0 
0 
0 
0 
0 
0 
0 
0 
0 
0 
0 
0 
0 
0 
0 
0 
0 
0.0001930893330338052 
9.936693421147653e-05 
9.936693421147653e-05 
0.0003725230269064624 
9.936693421147653e-05 
9.936693421147653e-05 
9.936693421147653e-05 
0.0002981008026344296 
0.00939083881548723 
9.936693421147653e-05 
9.936693421147653e-05 
9.936693421147653e-05 
0.001261349159722249 
0 
0 
0 
0 
0 
0 
0 
0 
0 
0.001158689050717534 
0 
0 
0.002147893107188613 
0 
0 
0 
0.0004544666993738969 
0.0004544666993738969 
0.0004544666993738969 
0.0004544666993738969 
0.0004544666993738969 
0 
0 
0 
0 
0 
0 
0 
0 
0 
0 
0 
0.004732621850453065 
0 
0 
0 
0 
0 
0 
0 
0 
0 
0 
0 
0.000281167196466986 
0 
0 
0 
0 
0 
0 
0 
0 
0 
0 
0 
0 
0 
0.0006582264856789055 
0.0006582264856789055 
0.0006582264856789055 
0.0006582264856789055 
0.0006582264856789055 
0.0006582264856789055 
0.0006582264856789055 
0.0006582264856789055 
0.0006582264856789055 
0.0006582264856789055 
0.0006582264856789055 
0.0007830451861023198 
0.0006582264856789055 
0.001974679457036718 
0.004329719033028346 
0.0006582264856789055 
0.0006582264856789055 
0.0006582264856789055 
0 
0 
0 
0 
0 
0 
0 
0 
0 
0 
8.456551650901052e-05 
8.456551650901052e-05 
8.456551650901052e-05 
8.456551650901052e-05 
8.456551650901052e-05 
8.456551650901052e-05 
8.456551650901052e-05 
8.456551650901052e-05 
8.456551650901052e-05 
8.456551650901052e-05 
0.0002576128576489785 
8.456551650901052e-05 
0.0002536965495270316 
0.0002536965495270316 
8.456551650901052e-05 
8.456551650901052e-05 
8.456551650901052e-05 
0.0002129844862415189 
3.02843289560324e-05 
3.02843289560324e-05 
3.02843289560324e-05 
3.02843289560324e-05 
3.02843289560324e-05 
9.08529868680972e-05 
0.0004151994673932428 
3.02843289560324e-05 
3.02843289560324e-05 
3.02843289560324e-05 
0.0002819819610898859 
0.0002819819610898859 
0.0002819819610898859 
0.0002819819610898859 
0.0002819819610898859 
0.0006066916506894228 
0.0006066916506894228 
0.0006066916506894228 
0.0006066916506894228 
0.0006066916506894228 
0.0006066916506894228 
0.0006066916506894228 
0.0006066916506894228 
0.0006066916506894228 
0.0006066916506894228 
0.0006066916506894228 
0.0006066916506894228 
0.0006066916506894228 
0.0006066916506894228 
0.001213383301378846 
0.0006066916506894228 
0.0006066916506894228 
0.001030174833992334 
0.0003372731480821253 
0.0003372731480821253 
0.0003372731480821253 
0.0003372731480821253 
0.0003756659512564985 
0 
0 
0 
0 
0 
0 
0.003140644651735258 
0 
0 
0 
0 
0.0001794336938726573 
0.0001794336938726573 
0.0001794336938726573 
0.0002731560926949859 
0.0001794336938726573 
0.0001794336938726573 
0.0005383010816179721 
0.0001794336938726573 
0.0001794336938726573 
0.0001794336938726573 
0 
0 
0 
0 
0 
0 
0 
0 
0 
0 
0 
0 
0 
0 
0 
0 
0 
0 
0 
0 
0 
0 
0 
0 
0.0001443974870501597 
0.0001443974870501597 
0.0001443974870501597 
0.0001443974870501597 
0.0001443974870501597 
0.0001443974870501597 
0.0001443974870501597 
0.0004331924611504792 
0.0001443974870501597 
0.0001443974870501597 
0.0001443974870501597 
0.0003060771147688354 
0.0003060771147688354 
0.0003060771147688354 
0.0003060771147688354 
0.0003060771147688354 
5.449234484069584e-05 
5.449234484069584e-05 
5.449234484069584e-05 
5.449234484069584e-05 
5.449234484069584e-05 
5.449234484069584e-05 
5.449234484069584e-05 
0.0001634770345220875 
5.449234484069584e-05 
5.449234484069584e-05 
5.449234484069584e-05 
1.932197511675343e-05 
1.932197511675343e-05 
1.932197511675343e-05 
1.932197511675343e-05 
1.932197511675343e-05 
1.932197511675343e-05 
1.932197511675343e-05 
1.932197511675343e-05 
1.932197511675343e-05 
0.0003519131646935186 
1.932197511675343e-05 
5.796592535026031e-05 
5.796592535026031e-05 
1.932197511675343e-05 
1.932197511675343e-05 
1.932197511675343e-05 
9.372239882232869e-05 
9.372239882232869e-05 
9.372239882232869e-05 
9.372239882232869e-05 
9.372239882232869e-05 
9.372239882232869e-05 
9.372239882232869e-05 
0.002689529398773747 
0.002689529398773747 
0.002689529398773747 
0.002689529398773747 
0.002689529398773747 
0.002689529398773747 
0 
0 
0 
0 
0 
0 
0 
0 
0 
0 
0 
0 
0 
0 
0 
0 
0 
0 
0 
0 
0 
0 
0 
0 
0 
0 
0 
0 
0 
0 
0 
0 
0 
0.006936382392179708 
0 
0 
0 
0 
0 
0 
0.008901117114994984 
0 
0 
0.01976696895280524 
0 
0 
0 
0 
0 
0 
0 
0 
0 
0 
0 
0 
0 
0 
0 
0 
0 
0 
0 
0 
0 
0 
0 
0 
0 
0 
0 
0 
0 
0 
0 
0 
0 
0 
0 
0 
0 
0 
0 
0.0004710475372455271 
0 
0 
0.0007370844722893859 
0 
0.0003124305181635233 
0 
0.0001780532888050142 
0 
0.0002322796130115354 
0.0002322796130115354 
4.281137722575224e-05 
4.281137722575224e-05 
4.281137722575224e-05 
0 
0 
0 
0 
0 
0 
0 
0 
0 
0 
0 
0 
0 
0 
0 
0 
0 
0 
0.007006224088590651 
0 
0 
0 
0 
0 
0 
0 
0.005278862739842195 
0.0002483657893151083 
0 
0 
0 
0 
0 
0 
0 
0 
0 
0 
0 
1.154232027115494e-05 
1.154232027115494e-05 
0 
0 
0 
0 
0 
0 
0 
0 
0 
0 
0 
0 
0 
0 
0 
0 
1.760379764275613e-05 
0 
0 
0 
0 
0 
0 
0 
0 
0 
0 
0 
0 
0 
0 
0 
0 
0 
0 
0 
0 
0 
0 
0 
0 
0 
0 
0.0001353929469589504 
7.672266370214618e-05 
7.672266370214618e-05 
